digraph Tree {
node [shape=box] ;
0 [label="X[1] <= 0.5\ngini = 1.0\nsamples = 10000\nvalue = [1, 1, 1 ... 1, 1, 1]"] ;
1 [label="gini = 0.8\nsamples = 5\nvalue = [0, 0, 0 ... 0, 0, 0]"] ;
0 -> 1 [labeldistance=2.5, labelangle=45, headlabel="True"] ;
2 [label="X[2] <= 0.5\ngini = 1.0\nsamples = 9995\nvalue = [1, 1, 1 ... 1, 1, 1]"] ;
0 -> 2 [labeldistance=2.5, labelangle=-45, headlabel="False"] ;
3 [label="X[1] <= 12.0\ngini = 0.994\nsamples = 167\nvalue = [0, 0, 0 ... 0, 0, 0]"] ;
2 -> 3 ;
4 [label="gini = 0.0\nsamples = 1\nvalue = [0, 0, 0 ... 0, 0, 0]"] ;
3 -> 4 ;
5 [label="X[0] <= 185.0\ngini = 0.994\nsamples = 166\nvalue = [0, 0, 0 ... 0, 0, 0]"] ;
3 -> 5 ;
6 [label="gini = 0.0\nsamples = 1\nvalue = [0, 0, 0 ... 0, 0, 0]"] ;
5 -> 6 ;
7 [label="X[1] <= 28.5\ngini = 0.994\nsamples = 165\nvalue = [0, 0, 0 ... 0, 0, 0]"] ;
5 -> 7 ;
8 [label="gini = 0.0\nsamples = 1\nvalue = [0, 0, 0 ... 0, 0, 0]"] ;
7 -> 8 ;
9 [label="X[1] <= 34.5\ngini = 0.994\nsamples = 164\nvalue = [0, 0, 0 ... 0, 0, 0]"] ;
7 -> 9 ;
10 [label="gini = 0.0\nsamples = 1\nvalue = [0, 0, 0 ... 0, 0, 0]"] ;
9 -> 10 ;
11 [label="X[0] <= 365.0\ngini = 0.994\nsamples = 163\nvalue = [0, 0, 0 ... 0, 0, 0]"] ;
9 -> 11 ;
12 [label="gini = 0.0\nsamples = 1\nvalue = [0, 0, 0 ... 0, 0, 0]"] ;
11 -> 12 ;
13 [label="X[0] <= 577.0\ngini = 0.994\nsamples = 162\nvalue = [0, 0, 0 ... 0, 0, 0]"] ;
11 -> 13 ;
14 [label="gini = 0.0\nsamples = 1\nvalue = [0, 0, 0 ... 0, 0, 0]"] ;
13 -> 14 ;
15 [label="X[0] <= 754.0\ngini = 0.994\nsamples = 161\nvalue = [0, 0, 0 ... 0, 0, 0]"] ;
13 -> 15 ;
16 [label="gini = 0.0\nsamples = 1\nvalue = [0, 0, 0 ... 0, 0, 0]"] ;
15 -> 16 ;
17 [label="X[0] <= 867.0\ngini = 0.994\nsamples = 160\nvalue = [0, 0, 0 ... 0, 0, 0]"] ;
15 -> 17 ;
18 [label="gini = 0.0\nsamples = 1\nvalue = [0, 0, 0 ... 0, 0, 0]"] ;
17 -> 18 ;
19 [label="X[0] <= 1116.0\ngini = 0.994\nsamples = 159\nvalue = [0, 0, 0 ... 0, 0, 0]"] ;
17 -> 19 ;
20 [label="gini = 0.0\nsamples = 1\nvalue = [0, 0, 0 ... 0, 0, 0]"] ;
19 -> 20 ;
21 [label="X[0] <= 1275.0\ngini = 0.994\nsamples = 158\nvalue = [0, 0, 0 ... 0, 0, 0]"] ;
19 -> 21 ;
22 [label="gini = 0.0\nsamples = 1\nvalue = [0, 0, 0 ... 0, 0, 0]"] ;
21 -> 22 ;
23 [label="X[0] <= 1277.5\ngini = 0.994\nsamples = 157\nvalue = [0, 0, 0 ... 0, 0, 0]"] ;
21 -> 23 ;
24 [label="gini = 0.0\nsamples = 1\nvalue = [0, 0, 0 ... 0, 0, 0]"] ;
23 -> 24 ;
25 [label="X[0] <= 1285.0\ngini = 0.994\nsamples = 156\nvalue = [0, 0, 0 ... 0, 0, 0]"] ;
23 -> 25 ;
26 [label="gini = 0.0\nsamples = 1\nvalue = [0, 0, 0 ... 0, 0, 0]"] ;
25 -> 26 ;
27 [label="X[1] <= 52.0\ngini = 0.994\nsamples = 155\nvalue = [0, 0, 0 ... 0, 0, 0]"] ;
25 -> 27 ;
28 [label="gini = 0.0\nsamples = 1\nvalue = [0, 0, 0 ... 0, 0, 0]"] ;
27 -> 28 ;
29 [label="X[0] <= 1296.5\ngini = 0.994\nsamples = 154\nvalue = [0, 0, 0 ... 0, 0, 0]"] ;
27 -> 29 ;
30 [label="gini = 0.0\nsamples = 1\nvalue = [0, 0, 0 ... 0, 0, 0]"] ;
29 -> 30 ;
31 [label="X[1] <= 74.0\ngini = 0.993\nsamples = 153\nvalue = [0, 0, 0 ... 0, 0, 0]"] ;
29 -> 31 ;
32 [label="X[0] <= 5828.0\ngini = 0.5\nsamples = 2\nvalue = [0, 0, 0 ... 0, 0, 0]"] ;
31 -> 32 ;
33 [label="gini = 0.0\nsamples = 1\nvalue = [0, 0, 0 ... 0, 0, 0]"] ;
32 -> 33 ;
34 [label="gini = 0.0\nsamples = 1\nvalue = [0, 0, 0 ... 0, 0, 0]"] ;
32 -> 34 ;
35 [label="X[1] <= 81.0\ngini = 0.993\nsamples = 151\nvalue = [0, 0, 0 ... 0, 0, 0]"] ;
31 -> 35 ;
36 [label="gini = 0.0\nsamples = 1\nvalue = [0, 0, 0 ... 0, 0, 0]"] ;
35 -> 36 ;
37 [label="X[1] <= 88.5\ngini = 0.993\nsamples = 150\nvalue = [0, 0, 0 ... 0, 0, 0]"] ;
35 -> 37 ;
38 [label="gini = 0.0\nsamples = 1\nvalue = [0, 0, 0 ... 0, 0, 0]"] ;
37 -> 38 ;
39 [label="X[1] <= 95.0\ngini = 0.993\nsamples = 149\nvalue = [0, 0, 0 ... 0, 0, 0]"] ;
37 -> 39 ;
40 [label="gini = 0.0\nsamples = 1\nvalue = [0, 0, 0 ... 0, 0, 0]"] ;
39 -> 40 ;
41 [label="X[1] <= 103.5\ngini = 0.993\nsamples = 148\nvalue = [0, 0, 0 ... 0, 0, 0]"] ;
39 -> 41 ;
42 [label="X[0] <= 4754.5\ngini = 0.5\nsamples = 2\nvalue = [0, 0, 0 ... 0, 0, 0]"] ;
41 -> 42 ;
43 [label="gini = 0.0\nsamples = 1\nvalue = [0, 0, 0 ... 0, 0, 0]"] ;
42 -> 43 ;
44 [label="gini = 0.0\nsamples = 1\nvalue = [0, 0, 0 ... 0, 0, 0]"] ;
42 -> 44 ;
45 [label="X[0] <= 1480.0\ngini = 0.993\nsamples = 146\nvalue = [0, 0, 0 ... 0, 0, 0]"] ;
41 -> 45 ;
46 [label="gini = 0.0\nsamples = 1\nvalue = [0, 0, 0 ... 0, 0, 0]"] ;
45 -> 46 ;
47 [label="X[1] <= 118.5\ngini = 0.993\nsamples = 145\nvalue = [0, 0, 0 ... 0, 0, 0]"] ;
45 -> 47 ;
48 [label="gini = 0.0\nsamples = 1\nvalue = [0, 0, 0 ... 0, 0, 0]"] ;
47 -> 48 ;
49 [label="X[1] <= 129.0\ngini = 0.993\nsamples = 144\nvalue = [0, 0, 0 ... 0, 0, 0]"] ;
47 -> 49 ;
50 [label="gini = 0.0\nsamples = 1\nvalue = [0, 0, 0 ... 0, 0, 0]"] ;
49 -> 50 ;
51 [label="X[1] <= 133.5\ngini = 0.993\nsamples = 143\nvalue = [0, 0, 0 ... 0, 0, 0]"] ;
49 -> 51 ;
52 [label="gini = 0.0\nsamples = 1\nvalue = [0, 0, 0 ... 0, 0, 0]"] ;
51 -> 52 ;
53 [label="X[0] <= 1699.0\ngini = 0.993\nsamples = 142\nvalue = [0, 0, 0 ... 0, 0, 0]"] ;
51 -> 53 ;
54 [label="gini = 0.0\nsamples = 1\nvalue = [0, 0, 0 ... 0, 0, 0]"] ;
53 -> 54 ;
55 [label="X[1] <= 139.5\ngini = 0.993\nsamples = 141\nvalue = [0, 0, 0 ... 0, 0, 0]"] ;
53 -> 55 ;
56 [label="gini = 0.0\nsamples = 1\nvalue = [0, 0, 0 ... 0, 0, 0]"] ;
55 -> 56 ;
57 [label="X[1] <= 149.0\ngini = 0.993\nsamples = 140\nvalue = [0, 0, 0 ... 0, 0, 0]"] ;
55 -> 57 ;
58 [label="gini = 0.0\nsamples = 1\nvalue = [0, 0, 0 ... 0, 0, 0]"] ;
57 -> 58 ;
59 [label="X[1] <= 166.0\ngini = 0.993\nsamples = 139\nvalue = [0, 0, 0 ... 0, 0, 0]"] ;
57 -> 59 ;
60 [label="gini = 0.0\nsamples = 1\nvalue = [0, 0, 0 ... 0, 0, 0]"] ;
59 -> 60 ;
61 [label="X[1] <= 179.0\ngini = 0.993\nsamples = 138\nvalue = [0, 0, 0 ... 0, 0, 0]"] ;
59 -> 61 ;
62 [label="gini = 0.0\nsamples = 1\nvalue = [0, 0, 0 ... 0, 0, 0]"] ;
61 -> 62 ;
63 [label="X[1] <= 193.5\ngini = 0.993\nsamples = 137\nvalue = [0, 0, 0 ... 0, 0, 0]"] ;
61 -> 63 ;
64 [label="gini = 0.0\nsamples = 1\nvalue = [0, 0, 0 ... 0, 0, 0]"] ;
63 -> 64 ;
65 [label="X[0] <= 1770.0\ngini = 0.993\nsamples = 136\nvalue = [0, 0, 0 ... 0, 0, 0]"] ;
63 -> 65 ;
66 [label="gini = 0.0\nsamples = 1\nvalue = [0, 0, 0 ... 0, 0, 0]"] ;
65 -> 66 ;
67 [label="X[0] <= 1923.5\ngini = 0.993\nsamples = 135\nvalue = [0, 0, 0 ... 0, 0, 0]"] ;
65 -> 67 ;
68 [label="gini = 0.0\nsamples = 1\nvalue = [0, 0, 0 ... 0, 0, 0]"] ;
67 -> 68 ;
69 [label="X[1] <= 208.5\ngini = 0.993\nsamples = 134\nvalue = [0, 0, 0 ... 0, 0, 0]"] ;
67 -> 69 ;
70 [label="gini = 0.0\nsamples = 1\nvalue = [0, 0, 0 ... 0, 0, 0]"] ;
69 -> 70 ;
71 [label="X[0] <= 2083.5\ngini = 0.992\nsamples = 133\nvalue = [0, 0, 0 ... 0, 0, 0]"] ;
69 -> 71 ;
72 [label="gini = 0.0\nsamples = 1\nvalue = [0, 0, 0 ... 0, 0, 0]"] ;
71 -> 72 ;
73 [label="X[0] <= 2234.5\ngini = 0.992\nsamples = 132\nvalue = [0, 0, 0 ... 0, 0, 0]"] ;
71 -> 73 ;
74 [label="gini = 0.0\nsamples = 1\nvalue = [0, 0, 0 ... 0, 0, 0]"] ;
73 -> 74 ;
75 [label="X[1] <= 214.5\ngini = 0.992\nsamples = 131\nvalue = [0, 0, 0 ... 0, 0, 0]"] ;
73 -> 75 ;
76 [label="gini = 0.0\nsamples = 1\nvalue = [0, 0, 0 ... 0, 0, 0]"] ;
75 -> 76 ;
77 [label="X[0] <= 2432.0\ngini = 0.992\nsamples = 130\nvalue = [0, 0, 0 ... 0, 0, 0]"] ;
75 -> 77 ;
78 [label="gini = 0.0\nsamples = 1\nvalue = [0, 0, 0 ... 0, 0, 0]"] ;
77 -> 78 ;
79 [label="X[1] <= 221.0\ngini = 0.992\nsamples = 129\nvalue = [0, 0, 0 ... 0, 0, 0]"] ;
77 -> 79 ;
80 [label="gini = 0.0\nsamples = 1\nvalue = [0, 0, 0 ... 0, 0, 0]"] ;
79 -> 80 ;
81 [label="X[1] <= 224.5\ngini = 0.992\nsamples = 128\nvalue = [0, 0, 0 ... 0, 0, 0]"] ;
79 -> 81 ;
82 [label="gini = 0.0\nsamples = 1\nvalue = [0, 0, 0 ... 0, 0, 0]"] ;
81 -> 82 ;
83 [label="X[1] <= 233.5\ngini = 0.992\nsamples = 127\nvalue = [0, 0, 0 ... 0, 0, 0]"] ;
81 -> 83 ;
84 [label="gini = 0.0\nsamples = 1\nvalue = [0, 0, 0 ... 0, 0, 0]"] ;
83 -> 84 ;
85 [label="X[0] <= 2625.0\ngini = 0.992\nsamples = 126\nvalue = [0, 0, 0 ... 0, 0, 0]"] ;
83 -> 85 ;
86 [label="gini = 0.0\nsamples = 1\nvalue = [0, 0, 0 ... 0, 0, 0]"] ;
85 -> 86 ;
87 [label="X[0] <= 2776.5\ngini = 0.992\nsamples = 125\nvalue = [0, 0, 0 ... 0, 0, 0]"] ;
85 -> 87 ;
88 [label="gini = 0.0\nsamples = 1\nvalue = [0, 0, 0 ... 0, 0, 0]"] ;
87 -> 88 ;
89 [label="X[0] <= 2821.5\ngini = 0.992\nsamples = 124\nvalue = [0, 0, 0 ... 0, 0, 0]"] ;
87 -> 89 ;
90 [label="gini = 0.0\nsamples = 1\nvalue = [0, 0, 0 ... 0, 0, 0]"] ;
89 -> 90 ;
91 [label="X[0] <= 2859.0\ngini = 0.992\nsamples = 123\nvalue = [0, 0, 0 ... 0, 0, 0]"] ;
89 -> 91 ;
92 [label="gini = 0.0\nsamples = 1\nvalue = [0, 0, 0 ... 0, 0, 0]"] ;
91 -> 92 ;
93 [label="X[0] <= 2948.0\ngini = 0.992\nsamples = 122\nvalue = [0, 0, 0 ... 0, 0, 0]"] ;
91 -> 93 ;
94 [label="gini = 0.0\nsamples = 1\nvalue = [0, 0, 0 ... 0, 0, 0]"] ;
93 -> 94 ;
95 [label="X[0] <= 3006.5\ngini = 0.992\nsamples = 121\nvalue = [0, 0, 0 ... 0, 0, 0]"] ;
93 -> 95 ;
96 [label="gini = 0.0\nsamples = 1\nvalue = [0, 0, 0 ... 0, 0, 0]"] ;
95 -> 96 ;
97 [label="X[1] <= 248.5\ngini = 0.992\nsamples = 120\nvalue = [0, 0, 0 ... 0, 0, 0]"] ;
95 -> 97 ;
98 [label="gini = 0.0\nsamples = 1\nvalue = [0, 0, 0 ... 0, 0, 0]"] ;
97 -> 98 ;
99 [label="X[1] <= 268.0\ngini = 0.992\nsamples = 119\nvalue = [0, 0, 0 ... 0, 0, 0]"] ;
97 -> 99 ;
100 [label="gini = 0.0\nsamples = 1\nvalue = [0, 0, 0 ... 0, 0, 0]"] ;
99 -> 100 ;
101 [label="X[0] <= 3023.0\ngini = 0.992\nsamples = 118\nvalue = [0, 0, 0 ... 0, 0, 0]"] ;
99 -> 101 ;
102 [label="gini = 0.0\nsamples = 1\nvalue = [0, 0, 0 ... 0, 0, 0]"] ;
101 -> 102 ;
103 [label="X[1] <= 296.5\ngini = 0.991\nsamples = 117\nvalue = [0, 0, 0 ... 0, 0, 0]"] ;
101 -> 103 ;
104 [label="gini = 0.0\nsamples = 1\nvalue = [0, 0, 0 ... 0, 0, 0]"] ;
103 -> 104 ;
105 [label="X[1] <= 315.5\ngini = 0.991\nsamples = 116\nvalue = [0, 0, 0 ... 0, 0, 0]"] ;
103 -> 105 ;
106 [label="gini = 0.0\nsamples = 1\nvalue = [0, 0, 0 ... 0, 0, 0]"] ;
105 -> 106 ;
107 [label="X[1] <= 326.0\ngini = 0.991\nsamples = 115\nvalue = [0, 0, 0 ... 0, 0, 0]"] ;
105 -> 107 ;
108 [label="gini = 0.0\nsamples = 1\nvalue = [0, 0, 0 ... 0, 0, 0]"] ;
107 -> 108 ;
109 [label="X[1] <= 346.0\ngini = 0.991\nsamples = 114\nvalue = [0, 0, 0 ... 0, 0, 0]"] ;
107 -> 109 ;
110 [label="gini = 0.0\nsamples = 1\nvalue = [0, 0, 0 ... 0, 0, 0]"] ;
109 -> 110 ;
111 [label="X[1] <= 362.5\ngini = 0.991\nsamples = 113\nvalue = [0, 0, 0 ... 0, 0, 0]"] ;
109 -> 111 ;
112 [label="gini = 0.0\nsamples = 1\nvalue = [0, 0, 0 ... 0, 0, 0]"] ;
111 -> 112 ;
113 [label="X[1] <= 373.5\ngini = 0.991\nsamples = 112\nvalue = [0, 0, 0 ... 0, 0, 0]"] ;
111 -> 113 ;
114 [label="gini = 0.0\nsamples = 1\nvalue = [0, 0, 0 ... 0, 0, 0]"] ;
113 -> 114 ;
115 [label="X[0] <= 3048.0\ngini = 0.991\nsamples = 111\nvalue = [0, 0, 0 ... 0, 0, 0]"] ;
113 -> 115 ;
116 [label="gini = 0.0\nsamples = 1\nvalue = [0, 0, 0 ... 0, 0, 0]"] ;
115 -> 116 ;
117 [label="X[0] <= 3081.0\ngini = 0.991\nsamples = 110\nvalue = [0, 0, 0 ... 0, 0, 0]"] ;
115 -> 117 ;
118 [label="gini = 0.0\nsamples = 1\nvalue = [0, 0, 0 ... 0, 0, 0]"] ;
117 -> 118 ;
119 [label="X[0] <= 3105.0\ngini = 0.991\nsamples = 109\nvalue = [0, 0, 0 ... 0, 0, 0]"] ;
117 -> 119 ;
120 [label="gini = 0.0\nsamples = 1\nvalue = [0, 0, 0 ... 0, 0, 0]"] ;
119 -> 120 ;
121 [label="X[0] <= 3110.0\ngini = 0.991\nsamples = 108\nvalue = [0, 0, 0 ... 0, 0, 0]"] ;
119 -> 121 ;
122 [label="gini = 0.0\nsamples = 1\nvalue = [0, 0, 0 ... 0, 0, 0]"] ;
121 -> 122 ;
123 [label="X[0] <= 3112.5\ngini = 0.991\nsamples = 107\nvalue = [0, 0, 0 ... 0, 0, 0]"] ;
121 -> 123 ;
124 [label="gini = 0.0\nsamples = 1\nvalue = [0, 0, 0 ... 0, 0, 0]"] ;
123 -> 124 ;
125 [label="X[1] <= 380.5\ngini = 0.991\nsamples = 106\nvalue = [0, 0, 0 ... 0, 0, 0]"] ;
123 -> 125 ;
126 [label="gini = 0.0\nsamples = 1\nvalue = [0, 0, 0 ... 0, 0, 0]"] ;
125 -> 126 ;
127 [label="X[1] <= 390.0\ngini = 0.99\nsamples = 105\nvalue = [0, 0, 0 ... 0, 0, 0]"] ;
125 -> 127 ;
128 [label="gini = 0.0\nsamples = 1\nvalue = [0, 0, 0 ... 0, 0, 0]"] ;
127 -> 128 ;
129 [label="X[0] <= 3121.5\ngini = 0.99\nsamples = 104\nvalue = [0, 0, 0 ... 0, 0, 0]"] ;
127 -> 129 ;
130 [label="gini = 0.0\nsamples = 1\nvalue = [0, 0, 0 ... 0, 0, 0]"] ;
129 -> 130 ;
131 [label="X[0] <= 3160.5\ngini = 0.99\nsamples = 103\nvalue = [0, 0, 0 ... 0, 0, 0]"] ;
129 -> 131 ;
132 [label="gini = 0.0\nsamples = 1\nvalue = [0, 0, 0 ... 0, 0, 0]"] ;
131 -> 132 ;
133 [label="X[1] <= 410.0\ngini = 0.99\nsamples = 102\nvalue = [0, 0, 0 ... 0, 0, 0]"] ;
131 -> 133 ;
134 [label="gini = 0.0\nsamples = 1\nvalue = [0, 0, 0 ... 0, 0, 0]"] ;
133 -> 134 ;
135 [label="X[1] <= 439.5\ngini = 0.99\nsamples = 101\nvalue = [0, 0, 0 ... 0, 0, 0]"] ;
133 -> 135 ;
136 [label="gini = 0.0\nsamples = 1\nvalue = [0, 0, 0 ... 0, 0, 0]"] ;
135 -> 136 ;
137 [label="X[0] <= 3202.5\ngini = 0.99\nsamples = 100\nvalue = [0, 0, 0 ... 0, 0, 0]"] ;
135 -> 137 ;
138 [label="gini = 0.0\nsamples = 1\nvalue = [0, 0, 0 ... 0, 0, 0]"] ;
137 -> 138 ;
139 [label="X[0] <= 3234.0\ngini = 0.99\nsamples = 99\nvalue = [0, 0, 0 ... 0, 0, 0]"] ;
137 -> 139 ;
140 [label="gini = 0.0\nsamples = 1\nvalue = [0, 0, 0 ... 0, 0, 0]"] ;
139 -> 140 ;
141 [label="X[1] <= 461.5\ngini = 0.99\nsamples = 98\nvalue = [0, 0, 0 ... 0, 0, 0]"] ;
139 -> 141 ;
142 [label="gini = 0.0\nsamples = 1\nvalue = [0, 0, 0 ... 0, 0, 0]"] ;
141 -> 142 ;
143 [label="X[1] <= 466.0\ngini = 0.99\nsamples = 97\nvalue = [0, 0, 0 ... 0, 0, 0]"] ;
141 -> 143 ;
144 [label="gini = 0.0\nsamples = 1\nvalue = [0, 0, 0 ... 0, 0, 0]"] ;
143 -> 144 ;
145 [label="X[1] <= 472.5\ngini = 0.99\nsamples = 96\nvalue = [0, 0, 0 ... 0, 0, 0]"] ;
143 -> 145 ;
146 [label="gini = 0.0\nsamples = 1\nvalue = [0, 0, 0 ... 0, 0, 0]"] ;
145 -> 146 ;
147 [label="X[1] <= 493.5\ngini = 0.989\nsamples = 95\nvalue = [0, 0, 0 ... 0, 0, 0]"] ;
145 -> 147 ;
148 [label="gini = 0.0\nsamples = 1\nvalue = [0, 0, 0 ... 0, 0, 0]"] ;
147 -> 148 ;
149 [label="X[0] <= 3254.5\ngini = 0.989\nsamples = 94\nvalue = [0, 0, 0 ... 0, 0, 0]"] ;
147 -> 149 ;
150 [label="gini = 0.0\nsamples = 1\nvalue = [0, 0, 0 ... 0, 0, 0]"] ;
149 -> 150 ;
151 [label="X[1] <= 513.5\ngini = 0.989\nsamples = 93\nvalue = [0, 0, 0 ... 0, 0, 0]"] ;
149 -> 151 ;
152 [label="gini = 0.0\nsamples = 1\nvalue = [0, 0, 0 ... 0, 0, 0]"] ;
151 -> 152 ;
153 [label="X[0] <= 3293.0\ngini = 0.989\nsamples = 92\nvalue = [0, 0, 0 ... 0, 0, 0]"] ;
151 -> 153 ;
154 [label="gini = 0.0\nsamples = 1\nvalue = [0, 0, 0 ... 0, 0, 0]"] ;
153 -> 154 ;
155 [label="X[0] <= 3337.0\ngini = 0.989\nsamples = 91\nvalue = [0, 0, 0 ... 0, 0, 0]"] ;
153 -> 155 ;
156 [label="gini = 0.0\nsamples = 1\nvalue = [0, 0, 0 ... 0, 0, 0]"] ;
155 -> 156 ;
157 [label="X[0] <= 3350.5\ngini = 0.989\nsamples = 90\nvalue = [0, 0, 0 ... 0, 0, 0]"] ;
155 -> 157 ;
158 [label="gini = 0.0\nsamples = 1\nvalue = [0, 0, 0 ... 0, 0, 0]"] ;
157 -> 158 ;
159 [label="X[0] <= 3360.0\ngini = 0.989\nsamples = 89\nvalue = [0, 0, 0 ... 0, 0, 0]"] ;
157 -> 159 ;
160 [label="gini = 0.0\nsamples = 1\nvalue = [0, 0, 0 ... 0, 0, 0]"] ;
159 -> 160 ;
161 [label="X[1] <= 520.0\ngini = 0.989\nsamples = 88\nvalue = [0, 0, 0 ... 0, 0, 0]"] ;
159 -> 161 ;
162 [label="gini = 0.0\nsamples = 1\nvalue = [0, 0, 0 ... 0, 0, 0]"] ;
161 -> 162 ;
163 [label="X[0] <= 3377.5\ngini = 0.989\nsamples = 87\nvalue = [0, 0, 0 ... 0, 0, 0]"] ;
161 -> 163 ;
164 [label="gini = 0.0\nsamples = 1\nvalue = [0, 0, 0 ... 0, 0, 0]"] ;
163 -> 164 ;
165 [label="X[0] <= 3398.0\ngini = 0.988\nsamples = 86\nvalue = [0, 0, 0 ... 0, 0, 0]"] ;
163 -> 165 ;
166 [label="gini = 0.0\nsamples = 1\nvalue = [0, 0, 0 ... 0, 0, 0]"] ;
165 -> 166 ;
167 [label="X[1] <= 552.0\ngini = 0.988\nsamples = 85\nvalue = [0, 0, 0 ... 0, 0, 0]"] ;
165 -> 167 ;
168 [label="gini = 0.0\nsamples = 1\nvalue = [0, 0, 0 ... 0, 0, 0]"] ;
167 -> 168 ;
169 [label="X[1] <= 582.5\ngini = 0.988\nsamples = 84\nvalue = [0, 0, 0 ... 0, 0, 0]"] ;
167 -> 169 ;
170 [label="gini = 0.0\nsamples = 1\nvalue = [0, 0, 0 ... 0, 0, 0]"] ;
169 -> 170 ;
171 [label="X[0] <= 3406.0\ngini = 0.988\nsamples = 83\nvalue = [0, 0, 0 ... 0, 0, 0]"] ;
169 -> 171 ;
172 [label="gini = 0.0\nsamples = 1\nvalue = [0, 0, 0 ... 0, 0, 0]"] ;
171 -> 172 ;
173 [label="X[1] <= 590.0\ngini = 0.988\nsamples = 82\nvalue = [0, 0, 0 ... 0, 0, 0]"] ;
171 -> 173 ;
174 [label="gini = 0.0\nsamples = 1\nvalue = [0, 0, 0 ... 0, 0, 0]"] ;
173 -> 174 ;
175 [label="X[1] <= 604.0\ngini = 0.988\nsamples = 81\nvalue = [0, 0, 0 ... 0, 0, 0]"] ;
173 -> 175 ;
176 [label="gini = 0.0\nsamples = 1\nvalue = [0, 0, 0 ... 0, 0, 0]"] ;
175 -> 176 ;
177 [label="X[0] <= 3422.5\ngini = 0.988\nsamples = 80\nvalue = [0, 0, 0 ... 0, 0, 0]"] ;
175 -> 177 ;
178 [label="gini = 0.0\nsamples = 1\nvalue = [0, 0, 0 ... 0, 0, 0]"] ;
177 -> 178 ;
179 [label="X[0] <= 3448.5\ngini = 0.987\nsamples = 79\nvalue = [0, 0, 0 ... 0, 0, 0]"] ;
177 -> 179 ;
180 [label="gini = 0.0\nsamples = 1\nvalue = [0, 0, 0 ... 0, 0, 0]"] ;
179 -> 180 ;
181 [label="X[0] <= 3465.5\ngini = 0.987\nsamples = 78\nvalue = [0, 0, 0 ... 0, 0, 0]"] ;
179 -> 181 ;
182 [label="gini = 0.0\nsamples = 1\nvalue = [0, 0, 0 ... 0, 0, 0]"] ;
181 -> 182 ;
183 [label="X[0] <= 3485.5\ngini = 0.987\nsamples = 77\nvalue = [0, 0, 0 ... 0, 0, 0]"] ;
181 -> 183 ;
184 [label="gini = 0.0\nsamples = 1\nvalue = [0, 0, 0 ... 0, 0, 0]"] ;
183 -> 184 ;
185 [label="X[1] <= 614.5\ngini = 0.987\nsamples = 76\nvalue = [0, 0, 0 ... 0, 0, 0]"] ;
183 -> 185 ;
186 [label="gini = 0.0\nsamples = 1\nvalue = [0, 0, 0 ... 0, 0, 0]"] ;
185 -> 186 ;
187 [label="X[0] <= 3509.0\ngini = 0.987\nsamples = 75\nvalue = [0, 0, 0 ... 0, 0, 0]"] ;
185 -> 187 ;
188 [label="gini = 0.0\nsamples = 1\nvalue = [0, 0, 0 ... 0, 0, 0]"] ;
187 -> 188 ;
189 [label="X[1] <= 633.0\ngini = 0.986\nsamples = 74\nvalue = [0, 0, 0 ... 0, 0, 0]"] ;
187 -> 189 ;
190 [label="X[0] <= 5311.0\ngini = 0.5\nsamples = 2\nvalue = [0, 0, 0 ... 0, 0, 0]"] ;
189 -> 190 ;
191 [label="gini = 0.0\nsamples = 1\nvalue = [0, 0, 0 ... 0, 0, 0]"] ;
190 -> 191 ;
192 [label="gini = 0.0\nsamples = 1\nvalue = [0, 0, 0 ... 0, 0, 0]"] ;
190 -> 192 ;
193 [label="X[0] <= 3525.5\ngini = 0.986\nsamples = 72\nvalue = [0, 0, 0 ... 0, 0, 0]"] ;
189 -> 193 ;
194 [label="gini = 0.0\nsamples = 1\nvalue = [0, 0, 0 ... 0, 0, 0]"] ;
193 -> 194 ;
195 [label="X[0] <= 3538.5\ngini = 0.986\nsamples = 71\nvalue = [0, 0, 0 ... 0, 0, 0]"] ;
193 -> 195 ;
196 [label="gini = 0.0\nsamples = 1\nvalue = [0, 0, 0 ... 0, 0, 0]"] ;
195 -> 196 ;
197 [label="X[1] <= 668.5\ngini = 0.986\nsamples = 70\nvalue = [0, 0, 0 ... 0, 0, 0]"] ;
195 -> 197 ;
198 [label="gini = 0.0\nsamples = 1\nvalue = [0, 0, 0 ... 0, 0, 0]"] ;
197 -> 198 ;
199 [label="X[1] <= 708.5\ngini = 0.986\nsamples = 69\nvalue = [0, 0, 0 ... 0, 0, 0]"] ;
197 -> 199 ;
200 [label="gini = 0.0\nsamples = 1\nvalue = [0, 0, 0 ... 0, 0, 0]"] ;
199 -> 200 ;
201 [label="X[1] <= 740.0\ngini = 0.985\nsamples = 68\nvalue = [0, 0, 0 ... 0, 0, 0]"] ;
199 -> 201 ;
202 [label="X[0] <= 5168.0\ngini = 0.5\nsamples = 2\nvalue = [0, 0, 0 ... 0, 0, 0]"] ;
201 -> 202 ;
203 [label="gini = 0.0\nsamples = 1\nvalue = [0, 0, 0 ... 0, 0, 0]"] ;
202 -> 203 ;
204 [label="gini = 0.0\nsamples = 1\nvalue = [0, 0, 0 ... 0, 0, 0]"] ;
202 -> 204 ;
205 [label="X[1] <= 758.5\ngini = 0.985\nsamples = 66\nvalue = [0, 0, 0 ... 0, 0, 0]"] ;
201 -> 205 ;
206 [label="gini = 0.0\nsamples = 1\nvalue = [0, 0, 0 ... 0, 0, 0]"] ;
205 -> 206 ;
207 [label="X[0] <= 3587.5\ngini = 0.985\nsamples = 65\nvalue = [0, 0, 0 ... 0, 0, 0]"] ;
205 -> 207 ;
208 [label="gini = 0.0\nsamples = 1\nvalue = [0, 0, 0 ... 0, 0, 0]"] ;
207 -> 208 ;
209 [label="X[0] <= 3652.5\ngini = 0.984\nsamples = 64\nvalue = [0, 0, 0 ... 0, 0, 0]"] ;
207 -> 209 ;
210 [label="gini = 0.0\nsamples = 1\nvalue = [0, 0, 0 ... 0, 0, 0]"] ;
209 -> 210 ;
211 [label="X[0] <= 3677.5\ngini = 0.984\nsamples = 63\nvalue = [0, 0, 0 ... 0, 0, 0]"] ;
209 -> 211 ;
212 [label="gini = 0.0\nsamples = 1\nvalue = [0, 0, 0 ... 0, 0, 0]"] ;
211 -> 212 ;
213 [label="X[1] <= 768.5\ngini = 0.984\nsamples = 62\nvalue = [0, 0, 0 ... 0, 0, 0]"] ;
211 -> 213 ;
214 [label="gini = 0.0\nsamples = 1\nvalue = [0, 0, 0 ... 0, 0, 0]"] ;
213 -> 214 ;
215 [label="X[0] <= 3689.5\ngini = 0.984\nsamples = 61\nvalue = [0, 0, 0 ... 0, 0, 0]"] ;
213 -> 215 ;
216 [label="gini = 0.0\nsamples = 1\nvalue = [0, 0, 0 ... 0, 0, 0]"] ;
215 -> 216 ;
217 [label="X[1] <= 774.5\ngini = 0.983\nsamples = 60\nvalue = [0, 0, 0 ... 0, 0, 0]"] ;
215 -> 217 ;
218 [label="gini = 0.0\nsamples = 1\nvalue = [0, 0, 0 ... 0, 0, 0]"] ;
217 -> 218 ;
219 [label="X[1] <= 785.0\ngini = 0.983\nsamples = 59\nvalue = [0, 0, 0 ... 0, 0, 0]"] ;
217 -> 219 ;
220 [label="gini = 0.0\nsamples = 1\nvalue = [0, 0, 0 ... 0, 0, 0]"] ;
219 -> 220 ;
221 [label="X[1] <= 819.0\ngini = 0.983\nsamples = 58\nvalue = [0, 0, 0 ... 0, 0, 0]"] ;
219 -> 221 ;
222 [label="gini = 0.0\nsamples = 1\nvalue = [0, 0, 0 ... 0, 0, 0]"] ;
221 -> 222 ;
223 [label="X[0] <= 3724.0\ngini = 0.982\nsamples = 57\nvalue = [0, 0, 0 ... 0, 0, 0]"] ;
221 -> 223 ;
224 [label="gini = 0.0\nsamples = 1\nvalue = [0, 0, 0 ... 0, 0, 0]"] ;
223 -> 224 ;
225 [label="X[0] <= 3785.5\ngini = 0.982\nsamples = 56\nvalue = [0, 0, 0 ... 0, 0, 0]"] ;
223 -> 225 ;
226 [label="gini = 0.0\nsamples = 1\nvalue = [0, 0, 0 ... 0, 0, 0]"] ;
225 -> 226 ;
227 [label="X[1] <= 864.0\ngini = 0.982\nsamples = 55\nvalue = [0, 0, 0 ... 0, 0, 0]"] ;
225 -> 227 ;
228 [label="gini = 0.0\nsamples = 1\nvalue = [0, 0, 0 ... 0, 0, 0]"] ;
227 -> 228 ;
229 [label="X[1] <= 889.0\ngini = 0.981\nsamples = 54\nvalue = [0, 0, 0 ... 0, 0, 0]"] ;
227 -> 229 ;
230 [label="gini = 0.0\nsamples = 1\nvalue = [0, 0, 0 ... 0, 0, 0]"] ;
229 -> 230 ;
231 [label="X[0] <= 3837.5\ngini = 0.981\nsamples = 53\nvalue = [0, 0, 0 ... 0, 0, 0]"] ;
229 -> 231 ;
232 [label="gini = 0.0\nsamples = 1\nvalue = [0, 0, 0 ... 0, 0, 0]"] ;
231 -> 232 ;
233 [label="X[0] <= 3879.0\ngini = 0.981\nsamples = 52\nvalue = [0, 0, 0 ... 0, 0, 0]"] ;
231 -> 233 ;
234 [label="gini = 0.0\nsamples = 1\nvalue = [0, 0, 0 ... 0, 0, 0]"] ;
233 -> 234 ;
235 [label="X[0] <= 3905.0\ngini = 0.98\nsamples = 51\nvalue = [0, 0, 0 ... 0, 0, 0]"] ;
233 -> 235 ;
236 [label="gini = 0.0\nsamples = 1\nvalue = [0, 0, 0 ... 0, 0, 0]"] ;
235 -> 236 ;
237 [label="X[1] <= 897.0\ngini = 0.98\nsamples = 50\nvalue = [0, 0, 0 ... 0, 0, 0]"] ;
235 -> 237 ;
238 [label="gini = 0.0\nsamples = 1\nvalue = [0, 0, 0 ... 0, 0, 0]"] ;
237 -> 238 ;
239 [label="X[1] <= 926.0\ngini = 0.98\nsamples = 49\nvalue = [0, 0, 0 ... 0, 0, 0]"] ;
237 -> 239 ;
240 [label="X[0] <= 5530.0\ngini = 0.5\nsamples = 2\nvalue = [0, 0, 0 ... 0, 0, 0]"] ;
239 -> 240 ;
241 [label="gini = 0.0\nsamples = 1\nvalue = [0, 0, 0 ... 0, 0, 0]"] ;
240 -> 241 ;
242 [label="gini = 0.0\nsamples = 1\nvalue = [0, 0, 0 ... 0, 0, 0]"] ;
240 -> 242 ;
243 [label="X[0] <= 3909.0\ngini = 0.979\nsamples = 47\nvalue = [0, 0, 0 ... 0, 0, 0]"] ;
239 -> 243 ;
244 [label="gini = 0.0\nsamples = 1\nvalue = [0, 0, 0 ... 0, 0, 0]"] ;
243 -> 244 ;
245 [label="X[1] <= 979.5\ngini = 0.978\nsamples = 46\nvalue = [0, 0, 0 ... 0, 0, 0]"] ;
243 -> 245 ;
246 [label="gini = 0.0\nsamples = 1\nvalue = [0, 0, 0 ... 0, 0, 0]"] ;
245 -> 246 ;
247 [label="X[0] <= 4009.0\ngini = 0.978\nsamples = 45\nvalue = [0, 0, 0 ... 0, 0, 0]"] ;
245 -> 247 ;
248 [label="gini = 0.0\nsamples = 1\nvalue = [0, 0, 0 ... 0, 0, 0]"] ;
247 -> 248 ;
249 [label="X[1] <= 1019.0\ngini = 0.977\nsamples = 44\nvalue = [0, 0, 0 ... 0, 0, 0]"] ;
247 -> 249 ;
250 [label="gini = 0.0\nsamples = 1\nvalue = [0, 0, 0 ... 0, 0, 0]"] ;
249 -> 250 ;
251 [label="X[1] <= 1035.5\ngini = 0.977\nsamples = 43\nvalue = [0, 0, 0 ... 0, 0, 0]"] ;
249 -> 251 ;
252 [label="gini = 0.0\nsamples = 1\nvalue = [0, 0, 0 ... 0, 0, 0]"] ;
251 -> 252 ;
253 [label="X[0] <= 4133.5\ngini = 0.976\nsamples = 42\nvalue = [0, 0, 0 ... 0, 0, 0]"] ;
251 -> 253 ;
254 [label="gini = 0.0\nsamples = 1\nvalue = [0, 0, 0 ... 0, 0, 0]"] ;
253 -> 254 ;
255 [label="X[1] <= 1049.5\ngini = 0.976\nsamples = 41\nvalue = [0, 0, 0 ... 0, 0, 0]"] ;
253 -> 255 ;
256 [label="gini = 0.0\nsamples = 1\nvalue = [0, 0, 0 ... 0, 0, 0]"] ;
255 -> 256 ;
257 [label="X[1] <= 1060.5\ngini = 0.975\nsamples = 40\nvalue = [0, 0, 0 ... 0, 0, 0]"] ;
255 -> 257 ;
258 [label="gini = 0.0\nsamples = 1\nvalue = [0, 0, 0 ... 0, 0, 0]"] ;
257 -> 258 ;
259 [label="X[0] <= 4171.5\ngini = 0.974\nsamples = 39\nvalue = [0, 0, 0 ... 0, 0, 0]"] ;
257 -> 259 ;
260 [label="gini = 0.0\nsamples = 1\nvalue = [0, 0, 0 ... 0, 0, 0]"] ;
259 -> 260 ;
261 [label="X[1] <= 1066.0\ngini = 0.974\nsamples = 38\nvalue = [0, 0, 0 ... 0, 0, 0]"] ;
259 -> 261 ;
262 [label="gini = 0.0\nsamples = 1\nvalue = [0, 0, 0 ... 0, 0, 0]"] ;
261 -> 262 ;
263 [label="X[0] <= 4218.5\ngini = 0.973\nsamples = 37\nvalue = [0, 0, 0 ... 0, 0, 0]"] ;
261 -> 263 ;
264 [label="gini = 0.0\nsamples = 1\nvalue = [0, 0, 0 ... 0, 0, 0]"] ;
263 -> 264 ;
265 [label="X[1] <= 1072.5\ngini = 0.972\nsamples = 36\nvalue = [0, 0, 0 ... 0, 0, 0]"] ;
263 -> 265 ;
266 [label="gini = 0.0\nsamples = 1\nvalue = [0, 0, 0 ... 0, 0, 0]"] ;
265 -> 266 ;
267 [label="X[0] <= 4280.0\ngini = 0.971\nsamples = 35\nvalue = [0, 0, 0 ... 0, 0, 0]"] ;
265 -> 267 ;
268 [label="gini = 0.0\nsamples = 1\nvalue = [0, 0, 0 ... 0, 0, 0]"] ;
267 -> 268 ;
269 [label="X[1] <= 1094.5\ngini = 0.971\nsamples = 34\nvalue = [0, 0, 0 ... 0, 0, 0]"] ;
267 -> 269 ;
270 [label="gini = 0.0\nsamples = 1\nvalue = [0, 0, 0 ... 0, 0, 0]"] ;
269 -> 270 ;
271 [label="X[0] <= 4320.5\ngini = 0.97\nsamples = 33\nvalue = [0, 0, 0 ... 0, 0, 0]"] ;
269 -> 271 ;
272 [label="gini = 0.0\nsamples = 1\nvalue = [0, 0, 0 ... 0, 0, 0]"] ;
271 -> 272 ;
273 [label="X[1] <= 1110.5\ngini = 0.969\nsamples = 32\nvalue = [0, 0, 0 ... 0, 0, 0]"] ;
271 -> 273 ;
274 [label="gini = 0.0\nsamples = 1\nvalue = [0, 0, 0 ... 0, 0, 0]"] ;
273 -> 274 ;
275 [label="X[1] <= 1124.0\ngini = 0.968\nsamples = 31\nvalue = [0, 0, 0 ... 0, 0, 0]"] ;
273 -> 275 ;
276 [label="gini = 0.0\nsamples = 1\nvalue = [0, 0, 0 ... 0, 0, 0]"] ;
275 -> 276 ;
277 [label="X[0] <= 4366.5\ngini = 0.967\nsamples = 30\nvalue = [0, 0, 0 ... 0, 0, 0]"] ;
275 -> 277 ;
278 [label="gini = 0.0\nsamples = 1\nvalue = [0, 0, 0 ... 0, 0, 0]"] ;
277 -> 278 ;
279 [label="X[1] <= 1163.5\ngini = 0.966\nsamples = 29\nvalue = [0, 0, 0 ... 0, 0, 0]"] ;
277 -> 279 ;
280 [label="gini = 0.0\nsamples = 1\nvalue = [0, 0, 0 ... 0, 0, 0]"] ;
279 -> 280 ;
281 [label="X[1] <= 1193.0\ngini = 0.964\nsamples = 28\nvalue = [0, 0, 0 ... 0, 0, 0]"] ;
279 -> 281 ;
282 [label="gini = 0.0\nsamples = 1\nvalue = [0, 0, 0 ... 0, 0, 0]"] ;
281 -> 282 ;
283 [label="X[1] <= 1196.5\ngini = 0.963\nsamples = 27\nvalue = [0, 0, 0 ... 0, 0, 0]"] ;
281 -> 283 ;
284 [label="gini = 0.0\nsamples = 1\nvalue = [0, 0, 0 ... 0, 0, 0]"] ;
283 -> 284 ;
285 [label="X[1] <= 1206.0\ngini = 0.962\nsamples = 26\nvalue = [0, 0, 0 ... 0, 0, 0]"] ;
283 -> 285 ;
286 [label="gini = 0.0\nsamples = 1\nvalue = [0, 0, 0 ... 0, 0, 0]"] ;
285 -> 286 ;
287 [label="X[1] <= 1245.0\ngini = 0.96\nsamples = 25\nvalue = [0, 0, 0 ... 0, 0, 0]"] ;
285 -> 287 ;
288 [label="gini = 0.0\nsamples = 1\nvalue = [0, 0, 0 ... 0, 0, 0]"] ;
287 -> 288 ;
289 [label="X[1] <= 1302.5\ngini = 0.958\nsamples = 24\nvalue = [0, 0, 0 ... 0, 0, 0]"] ;
287 -> 289 ;
290 [label="X[0] <= 4785.5\ngini = 0.5\nsamples = 2\nvalue = [0, 0, 0 ... 0, 0, 0]"] ;
289 -> 290 ;
291 [label="gini = 0.0\nsamples = 1\nvalue = [0, 0, 0 ... 0, 0, 0]"] ;
290 -> 291 ;
292 [label="gini = 0.0\nsamples = 1\nvalue = [0, 0, 0 ... 0, 0, 0]"] ;
290 -> 292 ;
293 [label="X[0] <= 4469.5\ngini = 0.955\nsamples = 22\nvalue = [0, 0, 0 ... 0, 0, 0]"] ;
289 -> 293 ;
294 [label="gini = 0.0\nsamples = 1\nvalue = [0, 0, 0 ... 0, 0, 0]"] ;
293 -> 294 ;
295 [label="X[1] <= 1338.0\ngini = 0.952\nsamples = 21\nvalue = [0, 0, 0 ... 0, 0, 0]"] ;
293 -> 295 ;
296 [label="gini = 0.0\nsamples = 1\nvalue = [0, 0, 0 ... 0, 0, 0]"] ;
295 -> 296 ;
297 [label="X[1] <= 1348.5\ngini = 0.95\nsamples = 20\nvalue = [0, 0, 0 ... 0, 0, 0]"] ;
295 -> 297 ;
298 [label="gini = 0.0\nsamples = 1\nvalue = [0, 0, 0 ... 0, 0, 0]"] ;
297 -> 298 ;
299 [label="X[1] <= 1352.5\ngini = 0.947\nsamples = 19\nvalue = [0, 0, 0 ... 0, 0, 0]"] ;
297 -> 299 ;
300 [label="gini = 0.0\nsamples = 1\nvalue = [0, 0, 0 ... 0, 0, 0]"] ;
299 -> 300 ;
301 [label="X[1] <= 1373.5\ngini = 0.944\nsamples = 18\nvalue = [0, 0, 0 ... 0, 0, 0]"] ;
299 -> 301 ;
302 [label="gini = 0.0\nsamples = 1\nvalue = [0, 0, 0 ... 0, 0, 0]"] ;
301 -> 302 ;
303 [label="X[0] <= 4620.0\ngini = 0.941\nsamples = 17\nvalue = [0, 0, 0 ... 0, 0, 0]"] ;
301 -> 303 ;
304 [label="gini = 0.0\nsamples = 1\nvalue = [0, 0, 0 ... 0, 0, 0]"] ;
303 -> 304 ;
305 [label="X[1] <= 1415.5\ngini = 0.938\nsamples = 16\nvalue = [0, 0, 0 ... 0, 0, 0]"] ;
303 -> 305 ;
306 [label="gini = 0.0\nsamples = 1\nvalue = [0, 0, 0 ... 0, 0, 0]"] ;
305 -> 306 ;
307 [label="X[1] <= 1439.0\ngini = 0.933\nsamples = 15\nvalue = [0, 0, 0 ... 0, 0, 0]"] ;
305 -> 307 ;
308 [label="gini = 0.0\nsamples = 1\nvalue = [0, 0, 0 ... 0, 0, 0]"] ;
307 -> 308 ;
309 [label="X[0] <= 4833.5\ngini = 0.929\nsamples = 14\nvalue = [0, 0, 0 ... 0, 0, 0]"] ;
307 -> 309 ;
310 [label="gini = 0.0\nsamples = 1\nvalue = [0, 0, 0 ... 0, 0, 0]"] ;
309 -> 310 ;
311 [label="X[1] <= 1457.0\ngini = 0.923\nsamples = 13\nvalue = [0, 0, 0 ... 0, 0, 0]"] ;
309 -> 311 ;
312 [label="gini = 0.0\nsamples = 1\nvalue = [0, 0, 0 ... 0, 0, 0]"] ;
311 -> 312 ;
313 [label="X[0] <= 4976.5\ngini = 0.917\nsamples = 12\nvalue = [0, 0, 0 ... 0, 0, 0]"] ;
311 -> 313 ;
314 [label="gini = 0.0\nsamples = 1\nvalue = [0, 0, 0 ... 0, 0, 0]"] ;
313 -> 314 ;
315 [label="X[1] <= 1498.5\ngini = 0.909\nsamples = 11\nvalue = [0, 0, 0 ... 0, 0, 0]"] ;
313 -> 315 ;
316 [label="gini = 0.0\nsamples = 1\nvalue = [0, 0, 0 ... 0, 0, 0]"] ;
315 -> 316 ;
317 [label="X[1] <= 1541.5\ngini = 0.9\nsamples = 10\nvalue = [0, 0, 0 ... 0, 0, 0]"] ;
315 -> 317 ;
318 [label="gini = 0.0\nsamples = 1\nvalue = [0, 0, 0 ... 0, 0, 0]"] ;
317 -> 318 ;
319 [label="X[1] <= 1601.0\ngini = 0.889\nsamples = 9\nvalue = [0, 0, 0 ... 0, 0, 0]"] ;
317 -> 319 ;
320 [label="gini = 0.0\nsamples = 1\nvalue = [0, 0, 0 ... 0, 0, 0]"] ;
319 -> 320 ;
321 [label="X[0] <= 5078.0\ngini = 0.875\nsamples = 8\nvalue = [0, 0, 0 ... 0, 0, 0]"] ;
319 -> 321 ;
322 [label="gini = 0.0\nsamples = 1\nvalue = [0, 0, 0 ... 0, 0, 0]"] ;
321 -> 322 ;
323 [label="X[1] <= 1668.5\ngini = 0.857\nsamples = 7\nvalue = [0, 0, 0 ... 0, 0, 0]"] ;
321 -> 323 ;
324 [label="gini = 0.0\nsamples = 1\nvalue = [0, 0, 0 ... 0, 0, 0]"] ;
323 -> 324 ;
325 [label="X[1] <= 1709.0\ngini = 0.833\nsamples = 6\nvalue = [0, 0, 0 ... 0, 0, 0]"] ;
323 -> 325 ;
326 [label="gini = 0.0\nsamples = 1\nvalue = [0, 0, 0 ... 0, 0, 0]"] ;
325 -> 326 ;
327 [label="X[1] <= 1761.0\ngini = 0.8\nsamples = 5\nvalue = [0, 0, 0 ... 0, 0, 0]"] ;
325 -> 327 ;
328 [label="gini = 0.0\nsamples = 1\nvalue = [0, 0, 0 ... 0, 0, 0]"] ;
327 -> 328 ;
329 [label="X[1] <= 1809.0\ngini = 0.75\nsamples = 4\nvalue = [0, 0, 0 ... 0, 0, 0]"] ;
327 -> 329 ;
330 [label="gini = 0.0\nsamples = 1\nvalue = [0, 0, 0 ... 0, 0, 0]"] ;
329 -> 330 ;
331 [label="X[1] <= 1829.0\ngini = 0.667\nsamples = 3\nvalue = [0, 0, 0 ... 0, 0, 0]"] ;
329 -> 331 ;
332 [label="gini = 0.0\nsamples = 1\nvalue = [0, 0, 0 ... 0, 0, 0]"] ;
331 -> 332 ;
333 [label="X[0] <= 5259.0\ngini = 0.5\nsamples = 2\nvalue = [0, 0, 0 ... 0, 0, 0]"] ;
331 -> 333 ;
334 [label="gini = 0.0\nsamples = 1\nvalue = [0, 0, 0 ... 0, 0, 0]"] ;
333 -> 334 ;
335 [label="gini = 0.0\nsamples = 1\nvalue = [0, 0, 0 ... 0, 0, 0]"] ;
333 -> 335 ;
336 [label="X[1] <= 2.5\ngini = 1.0\nsamples = 9828\nvalue = [1, 1, 1 ... 1, 1, 1]"] ;
2 -> 336 ;
337 [label="gini = 0.8\nsamples = 5\nvalue = [0, 0, 0 ... 0, 0, 0]"] ;
336 -> 337 ;
338 [label="X[0] <= 185.0\ngini = 1.0\nsamples = 9823\nvalue = [1, 1, 1 ... 1, 1, 1]"] ;
336 -> 338 ;
339 [label="X[1] <= 436.0\ngini = 0.981\nsamples = 54\nvalue = [0, 0, 0 ... 0, 0, 0]"] ;
338 -> 339 ;
340 [label="gini = 0.8\nsamples = 5\nvalue = [0, 0, 0 ... 0, 0, 0]"] ;
339 -> 340 ;
341 [label="X[1] <= 704.5\ngini = 0.98\nsamples = 49\nvalue = [0, 0, 0 ... 0, 0, 0]"] ;
339 -> 341 ;
342 [label="gini = 0.8\nsamples = 5\nvalue = [0, 0, 0 ... 0, 0, 0]"] ;
341 -> 342 ;
343 [label="X[2] <= 1.5\ngini = 0.977\nsamples = 44\nvalue = [0, 0, 0 ... 0, 0, 0]"] ;
341 -> 343 ;
344 [label="X[1] <= 918.5\ngini = 0.941\nsamples = 17\nvalue = [0, 0, 0 ... 0, 0, 0]"] ;
343 -> 344 ;
345 [label="gini = 0.667\nsamples = 3\nvalue = [0, 0, 0 ... 0, 0, 0]"] ;
344 -> 345 ;
346 [label="X[1] <= 1391.0\ngini = 0.929\nsamples = 14\nvalue = [0, 0, 0 ... 0, 0, 0]"] ;
344 -> 346 ;
347 [label="gini = 0.8\nsamples = 5\nvalue = [0, 0, 0 ... 0, 0, 0]"] ;
346 -> 347 ;
348 [label="X[1] <= 1794.0\ngini = 0.889\nsamples = 9\nvalue = [0, 0, 0 ... 0, 0, 0]"] ;
346 -> 348 ;
349 [label="gini = 0.75\nsamples = 4\nvalue = [0, 0, 0 ... 0, 0, 0]"] ;
348 -> 349 ;
350 [label="gini = 0.8\nsamples = 5\nvalue = [0, 0, 0 ... 0, 0, 0]"] ;
348 -> 350 ;
351 [label="X[1] <= 858.0\ngini = 0.963\nsamples = 27\nvalue = [0, 0, 0 ... 0, 0, 0]"] ;
343 -> 351 ;
352 [label="gini = 0.8\nsamples = 5\nvalue = [0, 0, 0 ... 0, 0, 0]"] ;
351 -> 352 ;
353 [label="X[1] <= 1113.5\ngini = 0.955\nsamples = 22\nvalue = [0, 0, 0 ... 0, 0, 0]"] ;
351 -> 353 ;
354 [label="gini = 0.8\nsamples = 5\nvalue = [0, 0, 0 ... 0, 0, 0]"] ;
353 -> 354 ;
355 [label="X[1] <= 1241.0\ngini = 0.941\nsamples = 17\nvalue = [0, 0, 0 ... 0, 0, 0]"] ;
353 -> 355 ;
356 [label="gini = 0.8\nsamples = 5\nvalue = [0, 0, 0 ... 0, 0, 0]"] ;
355 -> 356 ;
357 [label="X[1] <= 1432.0\ngini = 0.917\nsamples = 12\nvalue = [0, 0, 0 ... 0, 0, 0]"] ;
355 -> 357 ;
358 [label="gini = 0.75\nsamples = 4\nvalue = [0, 0, 0 ... 0, 0, 0]"] ;
357 -> 358 ;
359 [label="X[1] <= 1696.5\ngini = 0.875\nsamples = 8\nvalue = [0, 0, 0 ... 0, 0, 0]"] ;
357 -> 359 ;
360 [label="gini = 0.75\nsamples = 4\nvalue = [0, 0, 0 ... 0, 0, 0]"] ;
359 -> 360 ;
361 [label="gini = 0.75\nsamples = 4\nvalue = [0, 0, 0 ... 0, 0, 0]"] ;
359 -> 361 ;
362 [label="X[2] <= 1.5\ngini = 1.0\nsamples = 9769\nvalue = [1, 1, 1 ... 1, 1, 1]"] ;
338 -> 362 ;
363 [label="X[1] <= 4.5\ngini = 1.0\nsamples = 4861\nvalue = [0, 0, 0 ... 0, 0, 0]"] ;
362 -> 363 ;
364 [label="gini = 0.8\nsamples = 5\nvalue = [0, 0, 0 ... 0, 0, 0]"] ;
363 -> 364 ;
365 [label="X[0] <= 365.0\ngini = 1.0\nsamples = 4856\nvalue = [0, 0, 0 ... 0, 0, 0]"] ;
363 -> 365 ;
366 [label="X[1] <= 485.0\ngini = 0.966\nsamples = 29\nvalue = [0, 0, 0 ... 0, 0, 0]"] ;
365 -> 366 ;
367 [label="gini = 0.8\nsamples = 5\nvalue = [0, 0, 0 ... 0, 0, 0]"] ;
366 -> 367 ;
368 [label="X[1] <= 693.5\ngini = 0.958\nsamples = 24\nvalue = [0, 0, 0 ... 0, 0, 0]"] ;
366 -> 368 ;
369 [label="gini = 0.8\nsamples = 5\nvalue = [0, 0, 0 ... 0, 0, 0]"] ;
368 -> 369 ;
370 [label="X[1] <= 1005.5\ngini = 0.947\nsamples = 19\nvalue = [0, 0, 0 ... 0, 0, 0]"] ;
368 -> 370 ;
371 [label="gini = 0.8\nsamples = 5\nvalue = [0, 0, 0 ... 0, 0, 0]"] ;
370 -> 371 ;
372 [label="X[1] <= 1461.5\ngini = 0.929\nsamples = 14\nvalue = [0, 0, 0 ... 0, 0, 0]"] ;
370 -> 372 ;
373 [label="gini = 0.75\nsamples = 4\nvalue = [0, 0, 0 ... 0, 0, 0]"] ;
372 -> 373 ;
374 [label="X[1] <= 1699.0\ngini = 0.9\nsamples = 10\nvalue = [0, 0, 0 ... 0, 0, 0]"] ;
372 -> 374 ;
375 [label="gini = 0.8\nsamples = 5\nvalue = [0, 0, 0 ... 0, 0, 0]"] ;
374 -> 375 ;
376 [label="gini = 0.8\nsamples = 5\nvalue = [0, 0, 0 ... 0, 0, 0]"] ;
374 -> 376 ;
377 [label="X[1] <= 6.0\ngini = 1.0\nsamples = 4827\nvalue = [0, 0, 0 ... 0, 0, 0]"] ;
365 -> 377 ;
378 [label="gini = 0.8\nsamples = 5\nvalue = [0, 0, 0 ... 0, 0, 0]"] ;
377 -> 378 ;
379 [label="X[0] <= 577.0\ngini = 1.0\nsamples = 4822\nvalue = [0, 0, 0 ... 0, 0, 0]"] ;
377 -> 379 ;
380 [label="X[1] <= 570.5\ngini = 0.963\nsamples = 27\nvalue = [0, 0, 0 ... 0, 0, 0]"] ;
379 -> 380 ;
381 [label="gini = 0.8\nsamples = 5\nvalue = [0, 0, 0 ... 0, 0, 0]"] ;
380 -> 381 ;
382 [label="X[1] <= 901.5\ngini = 0.955\nsamples = 22\nvalue = [0, 0, 0 ... 0, 0, 0]"] ;
380 -> 382 ;
383 [label="gini = 0.8\nsamples = 5\nvalue = [0, 0, 0 ... 0, 0, 0]"] ;
382 -> 383 ;
384 [label="X[1] <= 1231.5\ngini = 0.941\nsamples = 17\nvalue = [0, 0, 0 ... 0, 0, 0]"] ;
382 -> 384 ;
385 [label="gini = 0.8\nsamples = 5\nvalue = [0, 0, 0 ... 0, 0, 0]"] ;
384 -> 385 ;
386 [label="X[1] <= 1479.0\ngini = 0.917\nsamples = 12\nvalue = [0, 0, 0 ... 0, 0, 0]"] ;
384 -> 386 ;
387 [label="gini = 0.8\nsamples = 5\nvalue = [0, 0, 0 ... 0, 0, 0]"] ;
386 -> 387 ;
388 [label="X[1] <= 1612.0\ngini = 0.857\nsamples = 7\nvalue = [0, 0, 0 ... 0, 0, 0]"] ;
386 -> 388 ;
389 [label="gini = 0.8\nsamples = 5\nvalue = [0, 0, 0 ... 0, 0, 0]"] ;
388 -> 389 ;
390 [label="gini = 0.5\nsamples = 2\nvalue = [0, 0, 0 ... 0, 0, 0]"] ;
388 -> 390 ;
391 [label="X[1] <= 7.5\ngini = 1.0\nsamples = 4795\nvalue = [0, 0, 0 ... 0, 0, 0]"] ;
379 -> 391 ;
392 [label="gini = 0.8\nsamples = 5\nvalue = [0, 0, 0 ... 0, 0, 0]"] ;
391 -> 392 ;
393 [label="X[0] <= 754.0\ngini = 1.0\nsamples = 4790\nvalue = [0, 0, 0 ... 0, 0, 0]"] ;
391 -> 393 ;
394 [label="X[1] <= 529.5\ngini = 0.967\nsamples = 30\nvalue = [0, 0, 0 ... 0, 0, 0]"] ;
393 -> 394 ;
395 [label="gini = 0.8\nsamples = 5\nvalue = [0, 0, 0 ... 0, 0, 0]"] ;
394 -> 395 ;
396 [label="X[1] <= 761.0\ngini = 0.96\nsamples = 25\nvalue = [0, 0, 0 ... 0, 0, 0]"] ;
394 -> 396 ;
397 [label="gini = 0.8\nsamples = 5\nvalue = [0, 0, 0 ... 0, 0, 0]"] ;
396 -> 397 ;
398 [label="X[1] <= 1037.5\ngini = 0.95\nsamples = 20\nvalue = [0, 0, 0 ... 0, 0, 0]"] ;
396 -> 398 ;
399 [label="gini = 0.8\nsamples = 5\nvalue = [0, 0, 0 ... 0, 0, 0]"] ;
398 -> 399 ;
400 [label="X[1] <= 1577.0\ngini = 0.933\nsamples = 15\nvalue = [0, 0, 0 ... 0, 0, 0]"] ;
398 -> 400 ;
401 [label="gini = 0.8\nsamples = 5\nvalue = [0, 0, 0 ... 0, 0, 0]"] ;
400 -> 401 ;
402 [label="X[1] <= 1868.0\ngini = 0.9\nsamples = 10\nvalue = [0, 0, 0 ... 0, 0, 0]"] ;
400 -> 402 ;
403 [label="gini = 0.8\nsamples = 5\nvalue = [0, 0, 0 ... 0, 0, 0]"] ;
402 -> 403 ;
404 [label="gini = 0.8\nsamples = 5\nvalue = [0, 0, 0 ... 0, 0, 0]"] ;
402 -> 404 ;
405 [label="X[0] <= 867.0\ngini = 1.0\nsamples = 4760\nvalue = [0, 0, 0 ... 0, 0, 0]"] ;
393 -> 405 ;
406 [label="X[1] <= 952.5\ngini = 0.967\nsamples = 30\nvalue = [0, 0, 0 ... 0, 0, 0]"] ;
405 -> 406 ;
407 [label="gini = 0.8\nsamples = 5\nvalue = [0, 0, 0 ... 0, 0, 0]"] ;
406 -> 407 ;
408 [label="X[1] <= 1116.5\ngini = 0.96\nsamples = 25\nvalue = [0, 0, 0 ... 0, 0, 0]"] ;
406 -> 408 ;
409 [label="gini = 0.8\nsamples = 5\nvalue = [0, 0, 0 ... 0, 0, 0]"] ;
408 -> 409 ;
410 [label="X[1] <= 1342.5\ngini = 0.95\nsamples = 20\nvalue = [0, 0, 0 ... 0, 0, 0]"] ;
408 -> 410 ;
411 [label="gini = 0.8\nsamples = 5\nvalue = [0, 0, 0 ... 0, 0, 0]"] ;
410 -> 411 ;
412 [label="X[1] <= 1516.0\ngini = 0.933\nsamples = 15\nvalue = [0, 0, 0 ... 0, 0, 0]"] ;
410 -> 412 ;
413 [label="gini = 0.8\nsamples = 5\nvalue = [0, 0, 0 ... 0, 0, 0]"] ;
412 -> 413 ;
414 [label="X[1] <= 1674.5\ngini = 0.9\nsamples = 10\nvalue = [0, 0, 0 ... 0, 0, 0]"] ;
412 -> 414 ;
415 [label="gini = 0.8\nsamples = 5\nvalue = [0, 0, 0 ... 0, 0, 0]"] ;
414 -> 415 ;
416 [label="gini = 0.8\nsamples = 5\nvalue = [0, 0, 0 ... 0, 0, 0]"] ;
414 -> 416 ;
417 [label="X[0] <= 1116.0\ngini = 1.0\nsamples = 4730\nvalue = [0, 0, 0 ... 0, 0, 0]"] ;
405 -> 417 ;
418 [label="X[1] <= 1124.5\ngini = 0.966\nsamples = 29\nvalue = [0, 0, 0 ... 0, 0, 0]"] ;
417 -> 418 ;
419 [label="gini = 0.75\nsamples = 4\nvalue = [0, 0, 0 ... 0, 0, 0]"] ;
418 -> 419 ;
420 [label="X[1] <= 1220.0\ngini = 0.96\nsamples = 25\nvalue = [0, 0, 0 ... 0, 0, 0]"] ;
418 -> 420 ;
421 [label="gini = 0.8\nsamples = 5\nvalue = [0, 0, 0 ... 0, 0, 0]"] ;
420 -> 421 ;
422 [label="X[1] <= 1320.5\ngini = 0.95\nsamples = 20\nvalue = [0, 0, 0 ... 0, 0, 0]"] ;
420 -> 422 ;
423 [label="gini = 0.8\nsamples = 5\nvalue = [0, 0, 0 ... 0, 0, 0]"] ;
422 -> 423 ;
424 [label="X[1] <= 1417.5\ngini = 0.933\nsamples = 15\nvalue = [0, 0, 0 ... 0, 0, 0]"] ;
422 -> 424 ;
425 [label="gini = 0.8\nsamples = 5\nvalue = [0, 0, 0 ... 0, 0, 0]"] ;
424 -> 425 ;
426 [label="X[1] <= 1626.5\ngini = 0.9\nsamples = 10\nvalue = [0, 0, 0 ... 0, 0, 0]"] ;
424 -> 426 ;
427 [label="gini = 0.8\nsamples = 5\nvalue = [0, 0, 0 ... 0, 0, 0]"] ;
426 -> 427 ;
428 [label="gini = 0.8\nsamples = 5\nvalue = [0, 0, 0 ... 0, 0, 0]"] ;
426 -> 428 ;
429 [label="X[1] <= 9.5\ngini = 1.0\nsamples = 4701\nvalue = [0, 0, 0 ... 0, 0, 0]"] ;
417 -> 429 ;
430 [label="gini = 0.8\nsamples = 5\nvalue = [0, 0, 0 ... 0, 0, 0]"] ;
429 -> 430 ;
431 [label="X[1] <= 11.5\ngini = 1.0\nsamples = 4696\nvalue = [0, 0, 0 ... 0, 0, 0]"] ;
429 -> 431 ;
432 [label="gini = 0.8\nsamples = 5\nvalue = [0, 0, 0 ... 0, 0, 0]"] ;
431 -> 432 ;
433 [label="X[1] <= 12.5\ngini = 1.0\nsamples = 4691\nvalue = [0, 0, 0 ... 0, 0, 0]"] ;
431 -> 433 ;
434 [label="gini = 0.8\nsamples = 5\nvalue = [0, 0, 0 ... 0, 0, 0]"] ;
433 -> 434 ;
435 [label="X[0] <= 1275.0\ngini = 1.0\nsamples = 4686\nvalue = [0, 0, 0 ... 0, 0, 0]"] ;
433 -> 435 ;
436 [label="X[1] <= 197.0\ngini = 0.966\nsamples = 29\nvalue = [0, 0, 0 ... 0, 0, 0]"] ;
435 -> 436 ;
437 [label="gini = 0.8\nsamples = 5\nvalue = [0, 0, 0 ... 0, 0, 0]"] ;
436 -> 437 ;
438 [label="X[1] <= 429.0\ngini = 0.958\nsamples = 24\nvalue = [0, 0, 0 ... 0, 0, 0]"] ;
436 -> 438 ;
439 [label="gini = 0.75\nsamples = 4\nvalue = [0, 0, 0 ... 0, 0, 0]"] ;
438 -> 439 ;
440 [label="X[1] <= 586.5\ngini = 0.95\nsamples = 20\nvalue = [0, 0, 0 ... 0, 0, 0]"] ;
438 -> 440 ;
441 [label="gini = 0.8\nsamples = 5\nvalue = [0, 0, 0 ... 0, 0, 0]"] ;
440 -> 441 ;
442 [label="X[1] <= 787.5\ngini = 0.933\nsamples = 15\nvalue = [0, 0, 0 ... 0, 0, 0]"] ;
440 -> 442 ;
443 [label="gini = 0.8\nsamples = 5\nvalue = [0, 0, 0 ... 0, 0, 0]"] ;
442 -> 443 ;
444 [label="X[1] <= 1389.0\ngini = 0.9\nsamples = 10\nvalue = [0, 0, 0 ... 0, 0, 0]"] ;
442 -> 444 ;
445 [label="gini = 0.8\nsamples = 5\nvalue = [0, 0, 0 ... 0, 0, 0]"] ;
444 -> 445 ;
446 [label="gini = 0.8\nsamples = 5\nvalue = [0, 0, 0 ... 0, 0, 0]"] ;
444 -> 446 ;
447 [label="X[0] <= 1277.5\ngini = 1.0\nsamples = 4657\nvalue = [0, 0, 0 ... 0, 0, 0]"] ;
435 -> 447 ;
448 [label="X[1] <= 247.5\ngini = 0.967\nsamples = 30\nvalue = [0, 0, 0 ... 0, 0, 0]"] ;
447 -> 448 ;
449 [label="gini = 0.8\nsamples = 5\nvalue = [0, 0, 0 ... 0, 0, 0]"] ;
448 -> 449 ;
450 [label="X[1] <= 680.0\ngini = 0.96\nsamples = 25\nvalue = [0, 0, 0 ... 0, 0, 0]"] ;
448 -> 450 ;
451 [label="gini = 0.8\nsamples = 5\nvalue = [0, 0, 0 ... 0, 0, 0]"] ;
450 -> 451 ;
452 [label="X[1] <= 1199.5\ngini = 0.95\nsamples = 20\nvalue = [0, 0, 0 ... 0, 0, 0]"] ;
450 -> 452 ;
453 [label="gini = 0.8\nsamples = 5\nvalue = [0, 0, 0 ... 0, 0, 0]"] ;
452 -> 453 ;
454 [label="X[1] <= 1530.0\ngini = 0.933\nsamples = 15\nvalue = [0, 0, 0 ... 0, 0, 0]"] ;
452 -> 454 ;
455 [label="gini = 0.8\nsamples = 5\nvalue = [0, 0, 0 ... 0, 0, 0]"] ;
454 -> 455 ;
456 [label="X[1] <= 1683.0\ngini = 0.9\nsamples = 10\nvalue = [0, 0, 0 ... 0, 0, 0]"] ;
454 -> 456 ;
457 [label="gini = 0.8\nsamples = 5\nvalue = [0, 0, 0 ... 0, 0, 0]"] ;
456 -> 457 ;
458 [label="gini = 0.8\nsamples = 5\nvalue = [0, 0, 0 ... 0, 0, 0]"] ;
456 -> 458 ;
459 [label="X[1] <= 13.5\ngini = 1.0\nsamples = 4627\nvalue = [0, 0, 0 ... 0, 0, 0]"] ;
447 -> 459 ;
460 [label="gini = 0.8\nsamples = 5\nvalue = [0, 0, 0 ... 0, 0, 0]"] ;
459 -> 460 ;
461 [label="X[0] <= 1285.0\ngini = 1.0\nsamples = 4622\nvalue = [0, 0, 0 ... 0, 0, 0]"] ;
459 -> 461 ;
462 [label="X[1] <= 355.5\ngini = 0.967\nsamples = 30\nvalue = [0, 0, 0 ... 0, 0, 0]"] ;
461 -> 462 ;
463 [label="gini = 0.8\nsamples = 5\nvalue = [0, 0, 0 ... 0, 0, 0]"] ;
462 -> 463 ;
464 [label="X[1] <= 623.0\ngini = 0.96\nsamples = 25\nvalue = [0, 0, 0 ... 0, 0, 0]"] ;
462 -> 464 ;
465 [label="gini = 0.8\nsamples = 5\nvalue = [0, 0, 0 ... 0, 0, 0]"] ;
464 -> 465 ;
466 [label="X[1] <= 701.0\ngini = 0.95\nsamples = 20\nvalue = [0, 0, 0 ... 0, 0, 0]"] ;
464 -> 466 ;
467 [label="gini = 0.8\nsamples = 5\nvalue = [0, 0, 0 ... 0, 0, 0]"] ;
466 -> 467 ;
468 [label="X[1] <= 1024.5\ngini = 0.933\nsamples = 15\nvalue = [0, 0, 0 ... 0, 0, 0]"] ;
466 -> 468 ;
469 [label="gini = 0.8\nsamples = 5\nvalue = [0, 0, 0 ... 0, 0, 0]"] ;
468 -> 469 ;
470 [label="X[1] <= 1404.5\ngini = 0.9\nsamples = 10\nvalue = [0, 0, 0 ... 0, 0, 0]"] ;
468 -> 470 ;
471 [label="gini = 0.8\nsamples = 5\nvalue = [0, 0, 0 ... 0, 0, 0]"] ;
470 -> 471 ;
472 [label="gini = 0.8\nsamples = 5\nvalue = [0, 0, 0 ... 0, 0, 0]"] ;
470 -> 472 ;
473 [label="X[1] <= 14.5\ngini = 1.0\nsamples = 4592\nvalue = [0, 0, 0 ... 0, 0, 0]"] ;
461 -> 473 ;
474 [label="gini = 0.8\nsamples = 5\nvalue = [0, 0, 0 ... 0, 0, 0]"] ;
473 -> 474 ;
475 [label="X[1] <= 15.5\ngini = 1.0\nsamples = 4587\nvalue = [0, 0, 0 ... 0, 0, 0]"] ;
473 -> 475 ;
476 [label="gini = 0.8\nsamples = 5\nvalue = [0, 0, 0 ... 0, 0, 0]"] ;
475 -> 476 ;
477 [label="X[1] <= 17.0\ngini = 1.0\nsamples = 4582\nvalue = [0, 0, 0 ... 0, 0, 0]"] ;
475 -> 477 ;
478 [label="gini = 0.8\nsamples = 5\nvalue = [0, 0, 0 ... 0, 0, 0]"] ;
477 -> 478 ;
479 [label="X[0] <= 1296.5\ngini = 1.0\nsamples = 4577\nvalue = [0, 0, 0 ... 0, 0, 0]"] ;
477 -> 479 ;
480 [label="X[1] <= 146.5\ngini = 0.967\nsamples = 30\nvalue = [0, 0, 0 ... 0, 0, 0]"] ;
479 -> 480 ;
481 [label="gini = 0.8\nsamples = 5\nvalue = [0, 0, 0 ... 0, 0, 0]"] ;
480 -> 481 ;
482 [label="X[1] <= 536.0\ngini = 0.96\nsamples = 25\nvalue = [0, 0, 0 ... 0, 0, 0]"] ;
480 -> 482 ;
483 [label="gini = 0.8\nsamples = 5\nvalue = [0, 0, 0 ... 0, 0, 0]"] ;
482 -> 483 ;
484 [label="X[1] <= 1127.0\ngini = 0.95\nsamples = 20\nvalue = [0, 0, 0 ... 0, 0, 0]"] ;
482 -> 484 ;
485 [label="gini = 0.8\nsamples = 5\nvalue = [0, 0, 0 ... 0, 0, 0]"] ;
484 -> 485 ;
486 [label="X[1] <= 1584.5\ngini = 0.933\nsamples = 15\nvalue = [0, 0, 0 ... 0, 0, 0]"] ;
484 -> 486 ;
487 [label="gini = 0.8\nsamples = 5\nvalue = [0, 0, 0 ... 0, 0, 0]"] ;
486 -> 487 ;
488 [label="X[1] <= 1837.5\ngini = 0.9\nsamples = 10\nvalue = [0, 0, 0 ... 0, 0, 0]"] ;
486 -> 488 ;
489 [label="gini = 0.8\nsamples = 5\nvalue = [0, 0, 0 ... 0, 0, 0]"] ;
488 -> 489 ;
490 [label="gini = 0.8\nsamples = 5\nvalue = [0, 0, 0 ... 0, 0, 0]"] ;
488 -> 490 ;
491 [label="X[0] <= 1480.0\ngini = 1.0\nsamples = 4547\nvalue = [0, 0, 0 ... 0, 0, 0]"] ;
479 -> 491 ;
492 [label="X[1] <= 840.0\ngini = 0.967\nsamples = 30\nvalue = [0, 0, 0 ... 0, 0, 0]"] ;
491 -> 492 ;
493 [label="gini = 0.8\nsamples = 5\nvalue = [0, 0, 0 ... 0, 0, 0]"] ;
492 -> 493 ;
494 [label="X[1] <= 984.0\ngini = 0.96\nsamples = 25\nvalue = [0, 0, 0 ... 0, 0, 0]"] ;
492 -> 494 ;
495 [label="gini = 0.8\nsamples = 5\nvalue = [0, 0, 0 ... 0, 0, 0]"] ;
494 -> 495 ;
496 [label="X[1] <= 1229.0\ngini = 0.95\nsamples = 20\nvalue = [0, 0, 0 ... 0, 0, 0]"] ;
494 -> 496 ;
497 [label="gini = 0.8\nsamples = 5\nvalue = [0, 0, 0 ... 0, 0, 0]"] ;
496 -> 497 ;
498 [label="X[1] <= 1432.5\ngini = 0.933\nsamples = 15\nvalue = [0, 0, 0 ... 0, 0, 0]"] ;
496 -> 498 ;
499 [label="gini = 0.8\nsamples = 5\nvalue = [0, 0, 0 ... 0, 0, 0]"] ;
498 -> 499 ;
500 [label="X[1] <= 1561.0\ngini = 0.9\nsamples = 10\nvalue = [0, 0, 0 ... 0, 0, 0]"] ;
498 -> 500 ;
501 [label="gini = 0.8\nsamples = 5\nvalue = [0, 0, 0 ... 0, 0, 0]"] ;
500 -> 501 ;
502 [label="gini = 0.8\nsamples = 5\nvalue = [0, 0, 0 ... 0, 0, 0]"] ;
500 -> 502 ;
503 [label="X[0] <= 1699.0\ngini = 1.0\nsamples = 4517\nvalue = [0, 0, 0 ... 0, 0, 0]"] ;
491 -> 503 ;
504 [label="X[1] <= 317.0\ngini = 0.967\nsamples = 30\nvalue = [0, 0, 0 ... 0, 0, 0]"] ;
503 -> 504 ;
505 [label="gini = 0.8\nsamples = 5\nvalue = [0, 0, 0 ... 0, 0, 0]"] ;
504 -> 505 ;
506 [label="X[1] <= 568.5\ngini = 0.96\nsamples = 25\nvalue = [0, 0, 0 ... 0, 0, 0]"] ;
504 -> 506 ;
507 [label="gini = 0.8\nsamples = 5\nvalue = [0, 0, 0 ... 0, 0, 0]"] ;
506 -> 507 ;
508 [label="X[1] <= 724.5\ngini = 0.95\nsamples = 20\nvalue = [0, 0, 0 ... 0, 0, 0]"] ;
506 -> 508 ;
509 [label="gini = 0.8\nsamples = 5\nvalue = [0, 0, 0 ... 0, 0, 0]"] ;
508 -> 509 ;
510 [label="X[1] <= 1069.0\ngini = 0.933\nsamples = 15\nvalue = [0, 0, 0 ... 0, 0, 0]"] ;
508 -> 510 ;
511 [label="gini = 0.8\nsamples = 5\nvalue = [0, 0, 0 ... 0, 0, 0]"] ;
510 -> 511 ;
512 [label="X[1] <= 1406.5\ngini = 0.9\nsamples = 10\nvalue = [0, 0, 0 ... 0, 0, 0]"] ;
510 -> 512 ;
513 [label="gini = 0.8\nsamples = 5\nvalue = [0, 0, 0 ... 0, 0, 0]"] ;
512 -> 513 ;
514 [label="gini = 0.8\nsamples = 5\nvalue = [0, 0, 0 ... 0, 0, 0]"] ;
512 -> 514 ;
515 [label="X[1] <= 19.5\ngini = 1.0\nsamples = 4487\nvalue = [0, 0, 0 ... 0, 0, 0]"] ;
503 -> 515 ;
516 [label="gini = 0.667\nsamples = 3\nvalue = [0, 0, 0 ... 0, 0, 0]"] ;
515 -> 516 ;
517 [label="X[0] <= 1770.0\ngini = 1.0\nsamples = 4484\nvalue = [0, 0, 0 ... 0, 0, 0]"] ;
515 -> 517 ;
518 [label="X[1] <= 92.5\ngini = 0.96\nsamples = 25\nvalue = [0, 0, 0 ... 0, 0, 0]"] ;
517 -> 518 ;
519 [label="gini = 0.8\nsamples = 5\nvalue = [0, 0, 0 ... 0, 0, 0]"] ;
518 -> 519 ;
520 [label="X[1] <= 556.5\ngini = 0.95\nsamples = 20\nvalue = [0, 0, 0 ... 0, 0, 0]"] ;
518 -> 520 ;
521 [label="gini = 0.8\nsamples = 5\nvalue = [0, 0, 0 ... 0, 0, 0]"] ;
520 -> 521 ;
522 [label="X[1] <= 967.0\ngini = 0.933\nsamples = 15\nvalue = [0, 0, 0 ... 0, 0, 0]"] ;
520 -> 522 ;
523 [label="gini = 0.8\nsamples = 5\nvalue = [0, 0, 0 ... 0, 0, 0]"] ;
522 -> 523 ;
524 [label="X[1] <= 1224.0\ngini = 0.9\nsamples = 10\nvalue = [0, 0, 0 ... 0, 0, 0]"] ;
522 -> 524 ;
525 [label="gini = 0.8\nsamples = 5\nvalue = [0, 0, 0 ... 0, 0, 0]"] ;
524 -> 525 ;
526 [label="gini = 0.8\nsamples = 5\nvalue = [0, 0, 0 ... 0, 0, 0]"] ;
524 -> 526 ;
527 [label="X[0] <= 1923.5\ngini = 1.0\nsamples = 4459\nvalue = [0, 0, 0 ... 0, 0, 0]"] ;
517 -> 527 ;
528 [label="X[1] <= 185.0\ngini = 0.967\nsamples = 30\nvalue = [0, 0, 0 ... 0, 0, 0]"] ;
527 -> 528 ;
529 [label="gini = 0.8\nsamples = 5\nvalue = [0, 0, 0 ... 0, 0, 0]"] ;
528 -> 529 ;
530 [label="X[1] <= 497.0\ngini = 0.96\nsamples = 25\nvalue = [0, 0, 0 ... 0, 0, 0]"] ;
528 -> 530 ;
531 [label="gini = 0.8\nsamples = 5\nvalue = [0, 0, 0 ... 0, 0, 0]"] ;
530 -> 531 ;
532 [label="X[1] <= 837.5\ngini = 0.95\nsamples = 20\nvalue = [0, 0, 0 ... 0, 0, 0]"] ;
530 -> 532 ;
533 [label="gini = 0.8\nsamples = 5\nvalue = [0, 0, 0 ... 0, 0, 0]"] ;
532 -> 533 ;
534 [label="X[1] <= 1298.0\ngini = 0.933\nsamples = 15\nvalue = [0, 0, 0 ... 0, 0, 0]"] ;
532 -> 534 ;
535 [label="gini = 0.8\nsamples = 5\nvalue = [0, 0, 0 ... 0, 0, 0]"] ;
534 -> 535 ;
536 [label="X[1] <= 1715.0\ngini = 0.9\nsamples = 10\nvalue = [0, 0, 0 ... 0, 0, 0]"] ;
534 -> 536 ;
537 [label="gini = 0.8\nsamples = 5\nvalue = [0, 0, 0 ... 0, 0, 0]"] ;
536 -> 537 ;
538 [label="gini = 0.8\nsamples = 5\nvalue = [0, 0, 0 ... 0, 0, 0]"] ;
536 -> 538 ;
539 [label="X[0] <= 2083.5\ngini = 1.0\nsamples = 4429\nvalue = [0, 0, 0 ... 0, 0, 0]"] ;
527 -> 539 ;
540 [label="X[1] <= 934.0\ngini = 0.967\nsamples = 30\nvalue = [0, 0, 0 ... 0, 0, 0]"] ;
539 -> 540 ;
541 [label="gini = 0.8\nsamples = 5\nvalue = [0, 0, 0 ... 0, 0, 0]"] ;
540 -> 541 ;
542 [label="X[1] <= 949.0\ngini = 0.96\nsamples = 25\nvalue = [0, 0, 0 ... 0, 0, 0]"] ;
540 -> 542 ;
543 [label="gini = 0.8\nsamples = 5\nvalue = [0, 0, 0 ... 0, 0, 0]"] ;
542 -> 543 ;
544 [label="X[1] <= 1029.5\ngini = 0.95\nsamples = 20\nvalue = [0, 0, 0 ... 0, 0, 0]"] ;
542 -> 544 ;
545 [label="gini = 0.8\nsamples = 5\nvalue = [0, 0, 0 ... 0, 0, 0]"] ;
544 -> 545 ;
546 [label="X[1] <= 1204.5\ngini = 0.933\nsamples = 15\nvalue = [0, 0, 0 ... 0, 0, 0]"] ;
544 -> 546 ;
547 [label="gini = 0.8\nsamples = 5\nvalue = [0, 0, 0 ... 0, 0, 0]"] ;
546 -> 547 ;
548 [label="X[1] <= 1536.5\ngini = 0.9\nsamples = 10\nvalue = [0, 0, 0 ... 0, 0, 0]"] ;
546 -> 548 ;
549 [label="gini = 0.8\nsamples = 5\nvalue = [0, 0, 0 ... 0, 0, 0]"] ;
548 -> 549 ;
550 [label="gini = 0.8\nsamples = 5\nvalue = [0, 0, 0 ... 0, 0, 0]"] ;
548 -> 550 ;
551 [label="X[0] <= 2234.5\ngini = 1.0\nsamples = 4399\nvalue = [0, 0, 0 ... 0, 0, 0]"] ;
539 -> 551 ;
552 [label="X[1] <= 934.5\ngini = 0.967\nsamples = 30\nvalue = [0, 0, 0 ... 0, 0, 0]"] ;
551 -> 552 ;
553 [label="gini = 0.8\nsamples = 5\nvalue = [0, 0, 0 ... 0, 0, 0]"] ;
552 -> 553 ;
554 [label="X[1] <= 1582.5\ngini = 0.96\nsamples = 25\nvalue = [0, 0, 0 ... 0, 0, 0]"] ;
552 -> 554 ;
555 [label="gini = 0.8\nsamples = 5\nvalue = [0, 0, 0 ... 0, 0, 0]"] ;
554 -> 555 ;
556 [label="X[1] <= 1707.0\ngini = 0.95\nsamples = 20\nvalue = [0, 0, 0 ... 0, 0, 0]"] ;
554 -> 556 ;
557 [label="gini = 0.8\nsamples = 5\nvalue = [0, 0, 0 ... 0, 0, 0]"] ;
556 -> 557 ;
558 [label="X[1] <= 1776.5\ngini = 0.933\nsamples = 15\nvalue = [0, 0, 0 ... 0, 0, 0]"] ;
556 -> 558 ;
559 [label="gini = 0.8\nsamples = 5\nvalue = [0, 0, 0 ... 0, 0, 0]"] ;
558 -> 559 ;
560 [label="X[1] <= 1853.5\ngini = 0.9\nsamples = 10\nvalue = [0, 0, 0 ... 0, 0, 0]"] ;
558 -> 560 ;
561 [label="gini = 0.8\nsamples = 5\nvalue = [0, 0, 0 ... 0, 0, 0]"] ;
560 -> 561 ;
562 [label="gini = 0.8\nsamples = 5\nvalue = [0, 0, 0 ... 0, 0, 0]"] ;
560 -> 562 ;
563 [label="X[0] <= 2432.0\ngini = 1.0\nsamples = 4369\nvalue = [0, 0, 0 ... 0, 0, 0]"] ;
551 -> 563 ;
564 [label="X[1] <= 166.0\ngini = 0.967\nsamples = 30\nvalue = [0, 0, 0 ... 0, 0, 0]"] ;
563 -> 564 ;
565 [label="gini = 0.8\nsamples = 5\nvalue = [0, 0, 0 ... 0, 0, 0]"] ;
564 -> 565 ;
566 [label="X[1] <= 299.0\ngini = 0.96\nsamples = 25\nvalue = [0, 0, 0 ... 0, 0, 0]"] ;
564 -> 566 ;
567 [label="gini = 0.8\nsamples = 5\nvalue = [0, 0, 0 ... 0, 0, 0]"] ;
566 -> 567 ;
568 [label="X[1] <= 792.0\ngini = 0.95\nsamples = 20\nvalue = [0, 0, 0 ... 0, 0, 0]"] ;
566 -> 568 ;
569 [label="gini = 0.8\nsamples = 5\nvalue = [0, 0, 0 ... 0, 0, 0]"] ;
568 -> 569 ;
570 [label="X[1] <= 1272.0\ngini = 0.933\nsamples = 15\nvalue = [0, 0, 0 ... 0, 0, 0]"] ;
568 -> 570 ;
571 [label="gini = 0.8\nsamples = 5\nvalue = [0, 0, 0 ... 0, 0, 0]"] ;
570 -> 571 ;
572 [label="X[1] <= 1464.0\ngini = 0.9\nsamples = 10\nvalue = [0, 0, 0 ... 0, 0, 0]"] ;
570 -> 572 ;
573 [label="gini = 0.8\nsamples = 5\nvalue = [0, 0, 0 ... 0, 0, 0]"] ;
572 -> 573 ;
574 [label="gini = 0.8\nsamples = 5\nvalue = [0, 0, 0 ... 0, 0, 0]"] ;
572 -> 574 ;
575 [label="X[0] <= 2597.0\ngini = 1.0\nsamples = 4339\nvalue = [0, 0, 0 ... 0, 0, 0]"] ;
563 -> 575 ;
576 [label="X[1] <= 468.0\ngini = 0.962\nsamples = 26\nvalue = [0, 0, 0 ... 0, 0, 0]"] ;
575 -> 576 ;
577 [label="gini = 0.667\nsamples = 3\nvalue = [0, 0, 0 ... 0, 0, 0]"] ;
576 -> 577 ;
578 [label="X[1] <= 934.5\ngini = 0.957\nsamples = 23\nvalue = [0, 0, 0 ... 0, 0, 0]"] ;
576 -> 578 ;
579 [label="gini = 0.8\nsamples = 5\nvalue = [0, 0, 0 ... 0, 0, 0]"] ;
578 -> 579 ;
580 [label="X[1] <= 1215.0\ngini = 0.944\nsamples = 18\nvalue = [0, 0, 0 ... 0, 0, 0]"] ;
578 -> 580 ;
581 [label="gini = 0.8\nsamples = 5\nvalue = [0, 0, 0 ... 0, 0, 0]"] ;
580 -> 581 ;
582 [label="X[1] <= 1426.5\ngini = 0.923\nsamples = 13\nvalue = [0, 0, 0 ... 0, 0, 0]"] ;
580 -> 582 ;
583 [label="gini = 0.8\nsamples = 5\nvalue = [0, 0, 0 ... 0, 0, 0]"] ;
582 -> 583 ;
584 [label="X[1] <= 1526.0\ngini = 0.875\nsamples = 8\nvalue = [0, 0, 0 ... 0, 0, 0]"] ;
582 -> 584 ;
585 [label="gini = 0.8\nsamples = 5\nvalue = [0, 0, 0 ... 0, 0, 0]"] ;
584 -> 585 ;
586 [label="gini = 0.667\nsamples = 3\nvalue = [0, 0, 0 ... 0, 0, 0]"] ;
584 -> 586 ;
587 [label="X[0] <= 2707.0\ngini = 1.0\nsamples = 4313\nvalue = [0, 0, 0 ... 0, 0, 0]"] ;
575 -> 587 ;
588 [label="X[1] <= 660.5\ngini = 0.967\nsamples = 30\nvalue = [0, 0, 0 ... 0, 0, 0]"] ;
587 -> 588 ;
589 [label="gini = 0.8\nsamples = 5\nvalue = [0, 0, 0 ... 0, 0, 0]"] ;
588 -> 589 ;
590 [label="X[1] <= 697.0\ngini = 0.96\nsamples = 25\nvalue = [0, 0, 0 ... 0, 0, 0]"] ;
588 -> 590 ;
591 [label="gini = 0.8\nsamples = 5\nvalue = [0, 0, 0 ... 0, 0, 0]"] ;
590 -> 591 ;
592 [label="X[1] <= 784.5\ngini = 0.95\nsamples = 20\nvalue = [0, 0, 0 ... 0, 0, 0]"] ;
590 -> 592 ;
593 [label="gini = 0.8\nsamples = 5\nvalue = [0, 0, 0 ... 0, 0, 0]"] ;
592 -> 593 ;
594 [label="X[1] <= 856.5\ngini = 0.933\nsamples = 15\nvalue = [0, 0, 0 ... 0, 0, 0]"] ;
592 -> 594 ;
595 [label="gini = 0.8\nsamples = 5\nvalue = [0, 0, 0 ... 0, 0, 0]"] ;
594 -> 595 ;
596 [label="X[1] <= 1133.0\ngini = 0.9\nsamples = 10\nvalue = [0, 0, 0 ... 0, 0, 0]"] ;
594 -> 596 ;
597 [label="gini = 0.8\nsamples = 5\nvalue = [0, 0, 0 ... 0, 0, 0]"] ;
596 -> 597 ;
598 [label="gini = 0.8\nsamples = 5\nvalue = [0, 0, 0 ... 0, 0, 0]"] ;
596 -> 598 ;
599 [label="X[1] <= 22.5\ngini = 1.0\nsamples = 4283\nvalue = [0, 0, 0 ... 0, 0, 0]"] ;
587 -> 599 ;
600 [label="gini = 0.8\nsamples = 5\nvalue = [0, 0, 0 ... 0, 0, 0]"] ;
599 -> 600 ;
601 [label="X[1] <= 24.5\ngini = 1.0\nsamples = 4278\nvalue = [0, 0, 0 ... 0, 0, 0]"] ;
599 -> 601 ;
602 [label="gini = 0.75\nsamples = 4\nvalue = [0, 0, 0 ... 0, 0, 0]"] ;
601 -> 602 ;
603 [label="X[0] <= 2776.5\ngini = 1.0\nsamples = 4274\nvalue = [0, 0, 0 ... 0, 0, 0]"] ;
601 -> 603 ;
604 [label="X[1] <= 953.5\ngini = 0.967\nsamples = 30\nvalue = [0, 0, 0 ... 0, 0, 0]"] ;
603 -> 604 ;
605 [label="gini = 0.8\nsamples = 5\nvalue = [0, 0, 0 ... 0, 0, 0]"] ;
604 -> 605 ;
606 [label="X[1] <= 1279.5\ngini = 0.96\nsamples = 25\nvalue = [0, 0, 0 ... 0, 0, 0]"] ;
604 -> 606 ;
607 [label="gini = 0.8\nsamples = 5\nvalue = [0, 0, 0 ... 0, 0, 0]"] ;
606 -> 607 ;
608 [label="X[1] <= 1641.5\ngini = 0.95\nsamples = 20\nvalue = [0, 0, 0 ... 0, 0, 0]"] ;
606 -> 608 ;
609 [label="gini = 0.8\nsamples = 5\nvalue = [0, 0, 0 ... 0, 0, 0]"] ;
608 -> 609 ;
610 [label="X[1] <= 1685.5\ngini = 0.933\nsamples = 15\nvalue = [0, 0, 0 ... 0, 0, 0]"] ;
608 -> 610 ;
611 [label="gini = 0.8\nsamples = 5\nvalue = [0, 0, 0 ... 0, 0, 0]"] ;
610 -> 611 ;
612 [label="X[1] <= 1749.5\ngini = 0.9\nsamples = 10\nvalue = [0, 0, 0 ... 0, 0, 0]"] ;
610 -> 612 ;
613 [label="gini = 0.8\nsamples = 5\nvalue = [0, 0, 0 ... 0, 0, 0]"] ;
612 -> 613 ;
614 [label="gini = 0.8\nsamples = 5\nvalue = [0, 0, 0 ... 0, 0, 0]"] ;
612 -> 614 ;
615 [label="X[0] <= 2821.5\ngini = 1.0\nsamples = 4244\nvalue = [0, 0, 0 ... 0, 0, 0]"] ;
603 -> 615 ;
616 [label="X[1] <= 480.5\ngini = 0.967\nsamples = 30\nvalue = [0, 0, 0 ... 0, 0, 0]"] ;
615 -> 616 ;
617 [label="gini = 0.8\nsamples = 5\nvalue = [0, 0, 0 ... 0, 0, 0]"] ;
616 -> 617 ;
618 [label="X[1] <= 772.0\ngini = 0.96\nsamples = 25\nvalue = [0, 0, 0 ... 0, 0, 0]"] ;
616 -> 618 ;
619 [label="gini = 0.8\nsamples = 5\nvalue = [0, 0, 0 ... 0, 0, 0]"] ;
618 -> 619 ;
620 [label="X[1] <= 827.5\ngini = 0.95\nsamples = 20\nvalue = [0, 0, 0 ... 0, 0, 0]"] ;
618 -> 620 ;
621 [label="gini = 0.8\nsamples = 5\nvalue = [0, 0, 0 ... 0, 0, 0]"] ;
620 -> 621 ;
622 [label="X[1] <= 1106.0\ngini = 0.933\nsamples = 15\nvalue = [0, 0, 0 ... 0, 0, 0]"] ;
620 -> 622 ;
623 [label="gini = 0.8\nsamples = 5\nvalue = [0, 0, 0 ... 0, 0, 0]"] ;
622 -> 623 ;
624 [label="X[1] <= 1473.5\ngini = 0.9\nsamples = 10\nvalue = [0, 0, 0 ... 0, 0, 0]"] ;
622 -> 624 ;
625 [label="gini = 0.8\nsamples = 5\nvalue = [0, 0, 0 ... 0, 0, 0]"] ;
624 -> 625 ;
626 [label="gini = 0.8\nsamples = 5\nvalue = [0, 0, 0 ... 0, 0, 0]"] ;
624 -> 626 ;
627 [label="X[1] <= 26.5\ngini = 1.0\nsamples = 4214\nvalue = [0, 0, 0 ... 0, 0, 0]"] ;
615 -> 627 ;
628 [label="gini = 0.8\nsamples = 5\nvalue = [0, 0, 0 ... 0, 0, 0]"] ;
627 -> 628 ;
629 [label="X[1] <= 29.0\ngini = 1.0\nsamples = 4209\nvalue = [0, 0, 0 ... 0, 0, 0]"] ;
627 -> 629 ;
630 [label="gini = 0.8\nsamples = 5\nvalue = [0, 0, 0 ... 0, 0, 0]"] ;
629 -> 630 ;
631 [label="X[0] <= 2859.0\ngini = 1.0\nsamples = 4204\nvalue = [0, 0, 0 ... 0, 0, 0]"] ;
629 -> 631 ;
632 [label="X[1] <= 709.0\ngini = 0.967\nsamples = 30\nvalue = [0, 0, 0 ... 0, 0, 0]"] ;
631 -> 632 ;
633 [label="gini = 0.8\nsamples = 5\nvalue = [0, 0, 0 ... 0, 0, 0]"] ;
632 -> 633 ;
634 [label="X[1] <= 917.5\ngini = 0.96\nsamples = 25\nvalue = [0, 0, 0 ... 0, 0, 0]"] ;
632 -> 634 ;
635 [label="gini = 0.8\nsamples = 5\nvalue = [0, 0, 0 ... 0, 0, 0]"] ;
634 -> 635 ;
636 [label="X[1] <= 981.0\ngini = 0.95\nsamples = 20\nvalue = [0, 0, 0 ... 0, 0, 0]"] ;
634 -> 636 ;
637 [label="gini = 0.8\nsamples = 5\nvalue = [0, 0, 0 ... 0, 0, 0]"] ;
636 -> 637 ;
638 [label="X[1] <= 1063.0\ngini = 0.933\nsamples = 15\nvalue = [0, 0, 0 ... 0, 0, 0]"] ;
636 -> 638 ;
639 [label="gini = 0.8\nsamples = 5\nvalue = [0, 0, 0 ... 0, 0, 0]"] ;
638 -> 639 ;
640 [label="X[1] <= 1295.0\ngini = 0.9\nsamples = 10\nvalue = [0, 0, 0 ... 0, 0, 0]"] ;
638 -> 640 ;
641 [label="gini = 0.8\nsamples = 5\nvalue = [0, 0, 0 ... 0, 0, 0]"] ;
640 -> 641 ;
642 [label="gini = 0.8\nsamples = 5\nvalue = [0, 0, 0 ... 0, 0, 0]"] ;
640 -> 642 ;
643 [label="X[0] <= 2948.0\ngini = 1.0\nsamples = 4174\nvalue = [0, 0, 0 ... 0, 0, 0]"] ;
631 -> 643 ;
644 [label="X[1] <= 304.0\ngini = 0.95\nsamples = 20\nvalue = [0, 0, 0 ... 0, 0, 0]"] ;
643 -> 644 ;
645 [label="gini = 0.8\nsamples = 5\nvalue = [0, 0, 0 ... 0, 0, 0]"] ;
644 -> 645 ;
646 [label="X[1] <= 948.0\ngini = 0.933\nsamples = 15\nvalue = [0, 0, 0 ... 0, 0, 0]"] ;
644 -> 646 ;
647 [label="gini = 0.8\nsamples = 5\nvalue = [0, 0, 0 ... 0, 0, 0]"] ;
646 -> 647 ;
648 [label="X[1] <= 1541.5\ngini = 0.9\nsamples = 10\nvalue = [0, 0, 0 ... 0, 0, 0]"] ;
646 -> 648 ;
649 [label="gini = 0.8\nsamples = 5\nvalue = [0, 0, 0 ... 0, 0, 0]"] ;
648 -> 649 ;
650 [label="gini = 0.8\nsamples = 5\nvalue = [0, 0, 0 ... 0, 0, 0]"] ;
648 -> 650 ;
651 [label="X[0] <= 3006.5\ngini = 1.0\nsamples = 4154\nvalue = [0, 0, 0 ... 0, 0, 0]"] ;
643 -> 651 ;
652 [label="X[1] <= 703.0\ngini = 0.967\nsamples = 30\nvalue = [0, 0, 0 ... 0, 0, 0]"] ;
651 -> 652 ;
653 [label="gini = 0.8\nsamples = 5\nvalue = [0, 0, 0 ... 0, 0, 0]"] ;
652 -> 653 ;
654 [label="X[1] <= 794.0\ngini = 0.96\nsamples = 25\nvalue = [0, 0, 0 ... 0, 0, 0]"] ;
652 -> 654 ;
655 [label="gini = 0.8\nsamples = 5\nvalue = [0, 0, 0 ... 0, 0, 0]"] ;
654 -> 655 ;
656 [label="X[1] <= 938.0\ngini = 0.95\nsamples = 20\nvalue = [0, 0, 0 ... 0, 0, 0]"] ;
654 -> 656 ;
657 [label="gini = 0.8\nsamples = 5\nvalue = [0, 0, 0 ... 0, 0, 0]"] ;
656 -> 657 ;
658 [label="X[1] <= 1212.5\ngini = 0.933\nsamples = 15\nvalue = [0, 0, 0 ... 0, 0, 0]"] ;
656 -> 658 ;
659 [label="gini = 0.8\nsamples = 5\nvalue = [0, 0, 0 ... 0, 0, 0]"] ;
658 -> 659 ;
660 [label="X[1] <= 1380.0\ngini = 0.9\nsamples = 10\nvalue = [0, 0, 0 ... 0, 0, 0]"] ;
658 -> 660 ;
661 [label="gini = 0.8\nsamples = 5\nvalue = [0, 0, 0 ... 0, 0, 0]"] ;
660 -> 661 ;
662 [label="gini = 0.8\nsamples = 5\nvalue = [0, 0, 0 ... 0, 0, 0]"] ;
660 -> 662 ;
663 [label="X[1] <= 31.5\ngini = 1.0\nsamples = 4124\nvalue = [0, 0, 0 ... 0, 0, 0]"] ;
651 -> 663 ;
664 [label="gini = 0.8\nsamples = 5\nvalue = [0, 0, 0 ... 0, 0, 0]"] ;
663 -> 664 ;
665 [label="X[1] <= 33.5\ngini = 1.0\nsamples = 4119\nvalue = [0, 0, 0 ... 0, 0, 0]"] ;
663 -> 665 ;
666 [label="gini = 0.8\nsamples = 5\nvalue = [0, 0, 0 ... 0, 0, 0]"] ;
665 -> 666 ;
667 [label="X[1] <= 35.0\ngini = 1.0\nsamples = 4114\nvalue = [0, 0, 0 ... 0, 0, 0]"] ;
665 -> 667 ;
668 [label="gini = 0.8\nsamples = 5\nvalue = [0, 0, 0 ... 0, 0, 0]"] ;
667 -> 668 ;
669 [label="X[1] <= 39.0\ngini = 1.0\nsamples = 4109\nvalue = [0, 0, 0 ... 0, 0, 0]"] ;
667 -> 669 ;
670 [label="gini = 0.8\nsamples = 5\nvalue = [0, 0, 0 ... 0, 0, 0]"] ;
669 -> 670 ;
671 [label="X[1] <= 42.5\ngini = 1.0\nsamples = 4104\nvalue = [0, 0, 0 ... 0, 0, 0]"] ;
669 -> 671 ;
672 [label="gini = 0.667\nsamples = 3\nvalue = [0, 0, 0 ... 0, 0, 0]"] ;
671 -> 672 ;
673 [label="X[1] <= 43.5\ngini = 1.0\nsamples = 4101\nvalue = [0, 0, 0 ... 0, 0, 0]"] ;
671 -> 673 ;
674 [label="gini = 0.8\nsamples = 5\nvalue = [0, 0, 0 ... 0, 0, 0]"] ;
673 -> 674 ;
675 [label="X[0] <= 3023.0\ngini = 1.0\nsamples = 4096\nvalue = [0, 0, 0 ... 0, 0, 0]"] ;
673 -> 675 ;
676 [label="X[1] <= 921.5\ngini = 0.967\nsamples = 30\nvalue = [0, 0, 0 ... 0, 0, 0]"] ;
675 -> 676 ;
677 [label="gini = 0.8\nsamples = 5\nvalue = [0, 0, 0 ... 0, 0, 0]"] ;
676 -> 677 ;
678 [label="X[1] <= 1358.5\ngini = 0.96\nsamples = 25\nvalue = [0, 0, 0 ... 0, 0, 0]"] ;
676 -> 678 ;
679 [label="gini = 0.8\nsamples = 5\nvalue = [0, 0, 0 ... 0, 0, 0]"] ;
678 -> 679 ;
680 [label="X[1] <= 1446.5\ngini = 0.95\nsamples = 20\nvalue = [0, 0, 0 ... 0, 0, 0]"] ;
678 -> 680 ;
681 [label="gini = 0.8\nsamples = 5\nvalue = [0, 0, 0 ... 0, 0, 0]"] ;
680 -> 681 ;
682 [label="X[1] <= 1606.5\ngini = 0.933\nsamples = 15\nvalue = [0, 0, 0 ... 0, 0, 0]"] ;
680 -> 682 ;
683 [label="gini = 0.8\nsamples = 5\nvalue = [0, 0, 0 ... 0, 0, 0]"] ;
682 -> 683 ;
684 [label="X[1] <= 1745.0\ngini = 0.9\nsamples = 10\nvalue = [0, 0, 0 ... 0, 0, 0]"] ;
682 -> 684 ;
685 [label="gini = 0.8\nsamples = 5\nvalue = [0, 0, 0 ... 0, 0, 0]"] ;
684 -> 685 ;
686 [label="gini = 0.8\nsamples = 5\nvalue = [0, 0, 0 ... 0, 0, 0]"] ;
684 -> 686 ;
687 [label="X[1] <= 44.5\ngini = 1.0\nsamples = 4066\nvalue = [0, 0, 0 ... 0, 0, 0]"] ;
675 -> 687 ;
688 [label="gini = 0.8\nsamples = 5\nvalue = [0, 0, 0 ... 0, 0, 0]"] ;
687 -> 688 ;
689 [label="X[0] <= 3048.0\ngini = 1.0\nsamples = 4061\nvalue = [0, 0, 0 ... 0, 0, 0]"] ;
687 -> 689 ;
690 [label="X[1] <= 641.5\ngini = 0.964\nsamples = 28\nvalue = [0, 0, 0 ... 0, 0, 0]"] ;
689 -> 690 ;
691 [label="gini = 0.8\nsamples = 5\nvalue = [0, 0, 0 ... 0, 0, 0]"] ;
690 -> 691 ;
692 [label="X[1] <= 1108.5\ngini = 0.957\nsamples = 23\nvalue = [0, 0, 0 ... 0, 0, 0]"] ;
690 -> 692 ;
693 [label="gini = 0.8\nsamples = 5\nvalue = [0, 0, 0 ... 0, 0, 0]"] ;
692 -> 693 ;
694 [label="X[1] <= 1246.5\ngini = 0.944\nsamples = 18\nvalue = [0, 0, 0 ... 0, 0, 0]"] ;
692 -> 694 ;
695 [label="gini = 0.8\nsamples = 5\nvalue = [0, 0, 0 ... 0, 0, 0]"] ;
694 -> 695 ;
696 [label="X[1] <= 1545.5\ngini = 0.923\nsamples = 13\nvalue = [0, 0, 0 ... 0, 0, 0]"] ;
694 -> 696 ;
697 [label="gini = 0.667\nsamples = 3\nvalue = [0, 0, 0 ... 0, 0, 0]"] ;
696 -> 697 ;
698 [label="X[1] <= 1819.0\ngini = 0.9\nsamples = 10\nvalue = [0, 0, 0 ... 0, 0, 0]"] ;
696 -> 698 ;
699 [label="gini = 0.8\nsamples = 5\nvalue = [0, 0, 0 ... 0, 0, 0]"] ;
698 -> 699 ;
700 [label="gini = 0.8\nsamples = 5\nvalue = [0, 0, 0 ... 0, 0, 0]"] ;
698 -> 700 ;
701 [label="X[1] <= 46.5\ngini = 1.0\nsamples = 4033\nvalue = [0, 0, 0 ... 0, 0, 0]"] ;
689 -> 701 ;
702 [label="gini = 0.8\nsamples = 5\nvalue = [0, 0, 0 ... 0, 0, 0]"] ;
701 -> 702 ;
703 [label="X[0] <= 3081.0\ngini = 1.0\nsamples = 4028\nvalue = [0, 0, 0 ... 0, 0, 0]"] ;
701 -> 703 ;
704 [label="X[1] <= 104.5\ngini = 0.967\nsamples = 30\nvalue = [0, 0, 0 ... 0, 0, 0]"] ;
703 -> 704 ;
705 [label="gini = 0.8\nsamples = 5\nvalue = [0, 0, 0 ... 0, 0, 0]"] ;
704 -> 705 ;
706 [label="X[1] <= 169.0\ngini = 0.96\nsamples = 25\nvalue = [0, 0, 0 ... 0, 0, 0]"] ;
704 -> 706 ;
707 [label="gini = 0.8\nsamples = 5\nvalue = [0, 0, 0 ... 0, 0, 0]"] ;
706 -> 707 ;
708 [label="X[1] <= 382.0\ngini = 0.95\nsamples = 20\nvalue = [0, 0, 0 ... 0, 0, 0]"] ;
706 -> 708 ;
709 [label="gini = 0.8\nsamples = 5\nvalue = [0, 0, 0 ... 0, 0, 0]"] ;
708 -> 709 ;
710 [label="X[1] <= 611.0\ngini = 0.933\nsamples = 15\nvalue = [0, 0, 0 ... 0, 0, 0]"] ;
708 -> 710 ;
711 [label="gini = 0.8\nsamples = 5\nvalue = [0, 0, 0 ... 0, 0, 0]"] ;
710 -> 711 ;
712 [label="X[1] <= 825.5\ngini = 0.9\nsamples = 10\nvalue = [0, 0, 0 ... 0, 0, 0]"] ;
710 -> 712 ;
713 [label="gini = 0.8\nsamples = 5\nvalue = [0, 0, 0 ... 0, 0, 0]"] ;
712 -> 713 ;
714 [label="gini = 0.8\nsamples = 5\nvalue = [0, 0, 0 ... 0, 0, 0]"] ;
712 -> 714 ;
715 [label="X[1] <= 49.0\ngini = 1.0\nsamples = 3998\nvalue = [0, 0, 0 ... 0, 0, 0]"] ;
703 -> 715 ;
716 [label="gini = 0.8\nsamples = 5\nvalue = [0, 0, 0 ... 0, 0, 0]"] ;
715 -> 716 ;
717 [label="X[1] <= 57.0\ngini = 1.0\nsamples = 3993\nvalue = [0, 0, 0 ... 0, 0, 0]"] ;
715 -> 717 ;
718 [label="gini = 0.8\nsamples = 5\nvalue = [0, 0, 0 ... 0, 0, 0]"] ;
717 -> 718 ;
719 [label="X[0] <= 3105.0\ngini = 1.0\nsamples = 3988\nvalue = [0, 0, 0 ... 0, 0, 0]"] ;
717 -> 719 ;
720 [label="X[1] <= 631.0\ngini = 0.967\nsamples = 30\nvalue = [0, 0, 0 ... 0, 0, 0]"] ;
719 -> 720 ;
721 [label="gini = 0.8\nsamples = 5\nvalue = [0, 0, 0 ... 0, 0, 0]"] ;
720 -> 721 ;
722 [label="X[1] <= 966.5\ngini = 0.96\nsamples = 25\nvalue = [0, 0, 0 ... 0, 0, 0]"] ;
720 -> 722 ;
723 [label="gini = 0.8\nsamples = 5\nvalue = [0, 0, 0 ... 0, 0, 0]"] ;
722 -> 723 ;
724 [label="X[1] <= 1110.5\ngini = 0.95\nsamples = 20\nvalue = [0, 0, 0 ... 0, 0, 0]"] ;
722 -> 724 ;
725 [label="gini = 0.8\nsamples = 5\nvalue = [0, 0, 0 ... 0, 0, 0]"] ;
724 -> 725 ;
726 [label="X[1] <= 1230.0\ngini = 0.933\nsamples = 15\nvalue = [0, 0, 0 ... 0, 0, 0]"] ;
724 -> 726 ;
727 [label="gini = 0.8\nsamples = 5\nvalue = [0, 0, 0 ... 0, 0, 0]"] ;
726 -> 727 ;
728 [label="X[1] <= 1586.0\ngini = 0.9\nsamples = 10\nvalue = [0, 0, 0 ... 0, 0, 0]"] ;
726 -> 728 ;
729 [label="gini = 0.8\nsamples = 5\nvalue = [0, 0, 0 ... 0, 0, 0]"] ;
728 -> 729 ;
730 [label="gini = 0.8\nsamples = 5\nvalue = [0, 0, 0 ... 0, 0, 0]"] ;
728 -> 730 ;
731 [label="X[1] <= 64.5\ngini = 1.0\nsamples = 3958\nvalue = [0, 0, 0 ... 0, 0, 0]"] ;
719 -> 731 ;
732 [label="gini = 0.8\nsamples = 5\nvalue = [0, 0, 0 ... 0, 0, 0]"] ;
731 -> 732 ;
733 [label="X[1] <= 66.0\ngini = 1.0\nsamples = 3953\nvalue = [0, 0, 0 ... 0, 0, 0]"] ;
731 -> 733 ;
734 [label="gini = 0.8\nsamples = 5\nvalue = [0, 0, 0 ... 0, 0, 0]"] ;
733 -> 734 ;
735 [label="X[0] <= 3110.0\ngini = 1.0\nsamples = 3948\nvalue = [0, 0, 0 ... 0, 0, 0]"] ;
733 -> 735 ;
736 [label="X[1] <= 617.0\ngini = 0.967\nsamples = 30\nvalue = [0, 0, 0 ... 0, 0, 0]"] ;
735 -> 736 ;
737 [label="gini = 0.8\nsamples = 5\nvalue = [0, 0, 0 ... 0, 0, 0]"] ;
736 -> 737 ;
738 [label="X[1] <= 855.0\ngini = 0.96\nsamples = 25\nvalue = [0, 0, 0 ... 0, 0, 0]"] ;
736 -> 738 ;
739 [label="gini = 0.8\nsamples = 5\nvalue = [0, 0, 0 ... 0, 0, 0]"] ;
738 -> 739 ;
740 [label="X[1] <= 1155.5\ngini = 0.95\nsamples = 20\nvalue = [0, 0, 0 ... 0, 0, 0]"] ;
738 -> 740 ;
741 [label="gini = 0.8\nsamples = 5\nvalue = [0, 0, 0 ... 0, 0, 0]"] ;
740 -> 741 ;
742 [label="X[1] <= 1365.5\ngini = 0.933\nsamples = 15\nvalue = [0, 0, 0 ... 0, 0, 0]"] ;
740 -> 742 ;
743 [label="gini = 0.8\nsamples = 5\nvalue = [0, 0, 0 ... 0, 0, 0]"] ;
742 -> 743 ;
744 [label="X[1] <= 1413.0\ngini = 0.9\nsamples = 10\nvalue = [0, 0, 0 ... 0, 0, 0]"] ;
742 -> 744 ;
745 [label="gini = 0.8\nsamples = 5\nvalue = [0, 0, 0 ... 0, 0, 0]"] ;
744 -> 745 ;
746 [label="gini = 0.8\nsamples = 5\nvalue = [0, 0, 0 ... 0, 0, 0]"] ;
744 -> 746 ;
747 [label="X[1] <= 67.5\ngini = 1.0\nsamples = 3918\nvalue = [0, 0, 0 ... 0, 0, 0]"] ;
735 -> 747 ;
748 [label="gini = 0.667\nsamples = 3\nvalue = [0, 0, 0 ... 0, 0, 0]"] ;
747 -> 748 ;
749 [label="X[1] <= 68.5\ngini = 1.0\nsamples = 3915\nvalue = [0, 0, 0 ... 0, 0, 0]"] ;
747 -> 749 ;
750 [label="gini = 0.8\nsamples = 5\nvalue = [0, 0, 0 ... 0, 0, 0]"] ;
749 -> 750 ;
751 [label="X[1] <= 71.5\ngini = 1.0\nsamples = 3910\nvalue = [0, 0, 0 ... 0, 0, 0]"] ;
749 -> 751 ;
752 [label="gini = 0.8\nsamples = 5\nvalue = [0, 0, 0 ... 0, 0, 0]"] ;
751 -> 752 ;
753 [label="X[1] <= 77.0\ngini = 1.0\nsamples = 3905\nvalue = [0, 0, 0 ... 0, 0, 0]"] ;
751 -> 753 ;
754 [label="gini = 0.8\nsamples = 5\nvalue = [0, 0, 0 ... 0, 0, 0]"] ;
753 -> 754 ;
755 [label="X[0] <= 3112.5\ngini = 1.0\nsamples = 3900\nvalue = [0, 0, 0 ... 0, 0, 0]"] ;
753 -> 755 ;
756 [label="X[1] <= 586.0\ngini = 0.963\nsamples = 27\nvalue = [0, 0, 0 ... 0, 0, 0]"] ;
755 -> 756 ;
757 [label="gini = 0.667\nsamples = 3\nvalue = [0, 0, 0 ... 0, 0, 0]"] ;
756 -> 757 ;
758 [label="X[1] <= 1146.0\ngini = 0.958\nsamples = 24\nvalue = [0, 0, 0 ... 0, 0, 0]"] ;
756 -> 758 ;
759 [label="gini = 0.8\nsamples = 5\nvalue = [0, 0, 0 ... 0, 0, 0]"] ;
758 -> 759 ;
760 [label="X[1] <= 1410.5\ngini = 0.947\nsamples = 19\nvalue = [0, 0, 0 ... 0, 0, 0]"] ;
758 -> 760 ;
761 [label="gini = 0.8\nsamples = 5\nvalue = [0, 0, 0 ... 0, 0, 0]"] ;
760 -> 761 ;
762 [label="X[1] <= 1510.5\ngini = 0.929\nsamples = 14\nvalue = [0, 0, 0 ... 0, 0, 0]"] ;
760 -> 762 ;
763 [label="gini = 0.8\nsamples = 5\nvalue = [0, 0, 0 ... 0, 0, 0]"] ;
762 -> 763 ;
764 [label="X[1] <= 1723.5\ngini = 0.889\nsamples = 9\nvalue = [0, 0, 0 ... 0, 0, 0]"] ;
762 -> 764 ;
765 [label="gini = 0.75\nsamples = 4\nvalue = [0, 0, 0 ... 0, 0, 0]"] ;
764 -> 765 ;
766 [label="gini = 0.8\nsamples = 5\nvalue = [0, 0, 0 ... 0, 0, 0]"] ;
764 -> 766 ;
767 [label="X[0] <= 3121.5\ngini = 1.0\nsamples = 3873\nvalue = [0, 0, 0 ... 0, 0, 0]"] ;
755 -> 767 ;
768 [label="X[1] <= 446.5\ngini = 0.967\nsamples = 30\nvalue = [0, 0, 0 ... 0, 0, 0]"] ;
767 -> 768 ;
769 [label="gini = 0.8\nsamples = 5\nvalue = [0, 0, 0 ... 0, 0, 0]"] ;
768 -> 769 ;
770 [label="X[1] <= 905.5\ngini = 0.96\nsamples = 25\nvalue = [0, 0, 0 ... 0, 0, 0]"] ;
768 -> 770 ;
771 [label="gini = 0.8\nsamples = 5\nvalue = [0, 0, 0 ... 0, 0, 0]"] ;
770 -> 771 ;
772 [label="X[1] <= 1182.5\ngini = 0.95\nsamples = 20\nvalue = [0, 0, 0 ... 0, 0, 0]"] ;
770 -> 772 ;
773 [label="gini = 0.8\nsamples = 5\nvalue = [0, 0, 0 ... 0, 0, 0]"] ;
772 -> 773 ;
774 [label="X[1] <= 1371.0\ngini = 0.933\nsamples = 15\nvalue = [0, 0, 0 ... 0, 0, 0]"] ;
772 -> 774 ;
775 [label="gini = 0.8\nsamples = 5\nvalue = [0, 0, 0 ... 0, 0, 0]"] ;
774 -> 775 ;
776 [label="X[1] <= 1672.0\ngini = 0.9\nsamples = 10\nvalue = [0, 0, 0 ... 0, 0, 0]"] ;
774 -> 776 ;
777 [label="gini = 0.8\nsamples = 5\nvalue = [0, 0, 0 ... 0, 0, 0]"] ;
776 -> 777 ;
778 [label="gini = 0.8\nsamples = 5\nvalue = [0, 0, 0 ... 0, 0, 0]"] ;
776 -> 778 ;
779 [label="X[1] <= 82.0\ngini = 1.0\nsamples = 3843\nvalue = [0, 0, 0 ... 0, 0, 0]"] ;
767 -> 779 ;
780 [label="gini = 0.8\nsamples = 5\nvalue = [0, 0, 0 ... 0, 0, 0]"] ;
779 -> 780 ;
781 [label="X[1] <= 85.0\ngini = 1.0\nsamples = 3838\nvalue = [0, 0, 0 ... 0, 0, 0]"] ;
779 -> 781 ;
782 [label="gini = 0.8\nsamples = 5\nvalue = [0, 0, 0 ... 0, 0, 0]"] ;
781 -> 782 ;
783 [label="X[0] <= 3160.5\ngini = 1.0\nsamples = 3833\nvalue = [0, 0, 0 ... 0, 0, 0]"] ;
781 -> 783 ;
784 [label="X[1] <= 596.0\ngini = 0.964\nsamples = 28\nvalue = [0, 0, 0 ... 0, 0, 0]"] ;
783 -> 784 ;
785 [label="gini = 0.75\nsamples = 4\nvalue = [0, 0, 0 ... 0, 0, 0]"] ;
784 -> 785 ;
786 [label="X[1] <= 1066.5\ngini = 0.958\nsamples = 24\nvalue = [0, 0, 0 ... 0, 0, 0]"] ;
784 -> 786 ;
787 [label="gini = 0.8\nsamples = 5\nvalue = [0, 0, 0 ... 0, 0, 0]"] ;
786 -> 787 ;
788 [label="X[1] <= 1333.0\ngini = 0.947\nsamples = 19\nvalue = [0, 0, 0 ... 0, 0, 0]"] ;
786 -> 788 ;
789 [label="gini = 0.75\nsamples = 4\nvalue = [0, 0, 0 ... 0, 0, 0]"] ;
788 -> 789 ;
790 [label="X[1] <= 1483.5\ngini = 0.933\nsamples = 15\nvalue = [0, 0, 0 ... 0, 0, 0]"] ;
788 -> 790 ;
791 [label="gini = 0.8\nsamples = 5\nvalue = [0, 0, 0 ... 0, 0, 0]"] ;
790 -> 791 ;
792 [label="X[1] <= 1521.0\ngini = 0.9\nsamples = 10\nvalue = [0, 0, 0 ... 0, 0, 0]"] ;
790 -> 792 ;
793 [label="gini = 0.8\nsamples = 5\nvalue = [0, 0, 0 ... 0, 0, 0]"] ;
792 -> 793 ;
794 [label="gini = 0.8\nsamples = 5\nvalue = [0, 0, 0 ... 0, 0, 0]"] ;
792 -> 794 ;
795 [label="X[0] <= 3202.5\ngini = 1.0\nsamples = 3805\nvalue = [0, 0, 0 ... 0, 0, 0]"] ;
783 -> 795 ;
796 [label="X[1] <= 335.0\ngini = 0.96\nsamples = 25\nvalue = [0, 0, 0 ... 0, 0, 0]"] ;
795 -> 796 ;
797 [label="gini = 0.8\nsamples = 5\nvalue = [0, 0, 0 ... 0, 0, 0]"] ;
796 -> 797 ;
798 [label="X[1] <= 675.0\ngini = 0.95\nsamples = 20\nvalue = [0, 0, 0 ... 0, 0, 0]"] ;
796 -> 798 ;
799 [label="gini = 0.8\nsamples = 5\nvalue = [0, 0, 0 ... 0, 0, 0]"] ;
798 -> 799 ;
800 [label="X[1] <= 1325.0\ngini = 0.933\nsamples = 15\nvalue = [0, 0, 0 ... 0, 0, 0]"] ;
798 -> 800 ;
801 [label="gini = 0.8\nsamples = 5\nvalue = [0, 0, 0 ... 0, 0, 0]"] ;
800 -> 801 ;
802 [label="X[1] <= 1742.0\ngini = 0.9\nsamples = 10\nvalue = [0, 0, 0 ... 0, 0, 0]"] ;
800 -> 802 ;
803 [label="gini = 0.8\nsamples = 5\nvalue = [0, 0, 0 ... 0, 0, 0]"] ;
802 -> 803 ;
804 [label="gini = 0.8\nsamples = 5\nvalue = [0, 0, 0 ... 0, 0, 0]"] ;
802 -> 804 ;
805 [label="X[0] <= 3234.0\ngini = 1.0\nsamples = 3780\nvalue = [0, 0, 0 ... 0, 0, 0]"] ;
795 -> 805 ;
806 [label="X[1] <= 347.5\ngini = 0.966\nsamples = 29\nvalue = [0, 0, 0 ... 0, 0, 0]"] ;
805 -> 806 ;
807 [label="gini = 0.8\nsamples = 5\nvalue = [0, 0, 0 ... 0, 0, 0]"] ;
806 -> 807 ;
808 [label="X[1] <= 451.5\ngini = 0.958\nsamples = 24\nvalue = [0, 0, 0 ... 0, 0, 0]"] ;
806 -> 808 ;
809 [label="gini = 0.8\nsamples = 5\nvalue = [0, 0, 0 ... 0, 0, 0]"] ;
808 -> 809 ;
810 [label="X[1] <= 544.5\ngini = 0.947\nsamples = 19\nvalue = [0, 0, 0 ... 0, 0, 0]"] ;
808 -> 810 ;
811 [label="gini = 0.8\nsamples = 5\nvalue = [0, 0, 0 ... 0, 0, 0]"] ;
810 -> 811 ;
812 [label="X[1] <= 940.5\ngini = 0.929\nsamples = 14\nvalue = [0, 0, 0 ... 0, 0, 0]"] ;
810 -> 812 ;
813 [label="gini = 0.8\nsamples = 5\nvalue = [0, 0, 0 ... 0, 0, 0]"] ;
812 -> 813 ;
814 [label="X[1] <= 1384.5\ngini = 0.889\nsamples = 9\nvalue = [0, 0, 0 ... 0, 0, 0]"] ;
812 -> 814 ;
815 [label="gini = 0.75\nsamples = 4\nvalue = [0, 0, 0 ... 0, 0, 0]"] ;
814 -> 815 ;
816 [label="gini = 0.8\nsamples = 5\nvalue = [0, 0, 0 ... 0, 0, 0]"] ;
814 -> 816 ;
817 [label="X[0] <= 3254.5\ngini = 1.0\nsamples = 3751\nvalue = [0, 0, 0 ... 0, 0, 0]"] ;
805 -> 817 ;
818 [label="X[1] <= 905.0\ngini = 0.963\nsamples = 27\nvalue = [0, 0, 0 ... 0, 0, 0]"] ;
817 -> 818 ;
819 [label="gini = 0.8\nsamples = 5\nvalue = [0, 0, 0 ... 0, 0, 0]"] ;
818 -> 819 ;
820 [label="X[1] <= 995.0\ngini = 0.955\nsamples = 22\nvalue = [0, 0, 0 ... 0, 0, 0]"] ;
818 -> 820 ;
821 [label="gini = 0.8\nsamples = 5\nvalue = [0, 0, 0 ... 0, 0, 0]"] ;
820 -> 821 ;
822 [label="X[1] <= 1320.0\ngini = 0.941\nsamples = 17\nvalue = [0, 0, 0 ... 0, 0, 0]"] ;
820 -> 822 ;
823 [label="gini = 0.5\nsamples = 2\nvalue = [0, 0, 0 ... 0, 0, 0]"] ;
822 -> 823 ;
824 [label="X[1] <= 1687.0\ngini = 0.933\nsamples = 15\nvalue = [0, 0, 0 ... 0, 0, 0]"] ;
822 -> 824 ;
825 [label="gini = 0.8\nsamples = 5\nvalue = [0, 0, 0 ... 0, 0, 0]"] ;
824 -> 825 ;
826 [label="X[1] <= 1792.5\ngini = 0.9\nsamples = 10\nvalue = [0, 0, 0 ... 0, 0, 0]"] ;
824 -> 826 ;
827 [label="gini = 0.8\nsamples = 5\nvalue = [0, 0, 0 ... 0, 0, 0]"] ;
826 -> 827 ;
828 [label="gini = 0.8\nsamples = 5\nvalue = [0, 0, 0 ... 0, 0, 0]"] ;
826 -> 828 ;
829 [label="X[1] <= 86.5\ngini = 1.0\nsamples = 3724\nvalue = [0, 0, 0 ... 0, 0, 0]"] ;
817 -> 829 ;
830 [label="gini = 0.8\nsamples = 5\nvalue = [0, 0, 0 ... 0, 0, 0]"] ;
829 -> 830 ;
831 [label="X[1] <= 88.0\ngini = 1.0\nsamples = 3719\nvalue = [0, 0, 0 ... 0, 0, 0]"] ;
829 -> 831 ;
832 [label="gini = 0.8\nsamples = 5\nvalue = [0, 0, 0 ... 0, 0, 0]"] ;
831 -> 832 ;
833 [label="X[0] <= 3279.0\ngini = 1.0\nsamples = 3714\nvalue = [0, 0, 0 ... 0, 0, 0]"] ;
831 -> 833 ;
834 [label="X[1] <= 908.5\ngini = 0.964\nsamples = 28\nvalue = [0, 0, 0 ... 0, 0, 0]"] ;
833 -> 834 ;
835 [label="gini = 0.8\nsamples = 5\nvalue = [0, 0, 0 ... 0, 0, 0]"] ;
834 -> 835 ;
836 [label="X[1] <= 1051.0\ngini = 0.957\nsamples = 23\nvalue = [0, 0, 0 ... 0, 0, 0]"] ;
834 -> 836 ;
837 [label="gini = 0.8\nsamples = 5\nvalue = [0, 0, 0 ... 0, 0, 0]"] ;
836 -> 837 ;
838 [label="X[1] <= 1106.0\ngini = 0.944\nsamples = 18\nvalue = [0, 0, 0 ... 0, 0, 0]"] ;
836 -> 838 ;
839 [label="gini = 0.667\nsamples = 3\nvalue = [0, 0, 0 ... 0, 0, 0]"] ;
838 -> 839 ;
840 [label="X[1] <= 1181.0\ngini = 0.933\nsamples = 15\nvalue = [0, 0, 0 ... 0, 0, 0]"] ;
838 -> 840 ;
841 [label="gini = 0.8\nsamples = 5\nvalue = [0, 0, 0 ... 0, 0, 0]"] ;
840 -> 841 ;
842 [label="X[1] <= 1520.5\ngini = 0.9\nsamples = 10\nvalue = [0, 0, 0 ... 0, 0, 0]"] ;
840 -> 842 ;
843 [label="gini = 0.8\nsamples = 5\nvalue = [0, 0, 0 ... 0, 0, 0]"] ;
842 -> 843 ;
844 [label="gini = 0.8\nsamples = 5\nvalue = [0, 0, 0 ... 0, 0, 0]"] ;
842 -> 844 ;
845 [label="X[0] <= 3317.0\ngini = 1.0\nsamples = 3686\nvalue = [0, 0, 0 ... 0, 0, 0]"] ;
833 -> 845 ;
846 [label="X[1] <= 199.0\ngini = 0.964\nsamples = 28\nvalue = [0, 0, 0 ... 0, 0, 0]"] ;
845 -> 846 ;
847 [label="gini = 0.8\nsamples = 5\nvalue = [0, 0, 0 ... 0, 0, 0]"] ;
846 -> 847 ;
848 [label="X[1] <= 318.0\ngini = 0.957\nsamples = 23\nvalue = [0, 0, 0 ... 0, 0, 0]"] ;
846 -> 848 ;
849 [label="gini = 0.667\nsamples = 3\nvalue = [0, 0, 0 ... 0, 0, 0]"] ;
848 -> 849 ;
850 [label="X[1] <= 714.0\ngini = 0.95\nsamples = 20\nvalue = [0, 0, 0 ... 0, 0, 0]"] ;
848 -> 850 ;
851 [label="gini = 0.8\nsamples = 5\nvalue = [0, 0, 0 ... 0, 0, 0]"] ;
850 -> 851 ;
852 [label="X[1] <= 1081.0\ngini = 0.933\nsamples = 15\nvalue = [0, 0, 0 ... 0, 0, 0]"] ;
850 -> 852 ;
853 [label="gini = 0.8\nsamples = 5\nvalue = [0, 0, 0 ... 0, 0, 0]"] ;
852 -> 853 ;
854 [label="X[1] <= 1507.5\ngini = 0.9\nsamples = 10\nvalue = [0, 0, 0 ... 0, 0, 0]"] ;
852 -> 854 ;
855 [label="gini = 0.8\nsamples = 5\nvalue = [0, 0, 0 ... 0, 0, 0]"] ;
854 -> 855 ;
856 [label="gini = 0.8\nsamples = 5\nvalue = [0, 0, 0 ... 0, 0, 0]"] ;
854 -> 856 ;
857 [label="X[0] <= 3337.0\ngini = 1.0\nsamples = 3658\nvalue = [0, 0, 0 ... 0, 0, 0]"] ;
845 -> 857 ;
858 [label="X[1] <= 441.5\ngini = 0.95\nsamples = 20\nvalue = [0, 0, 0 ... 0, 0, 0]"] ;
857 -> 858 ;
859 [label="gini = 0.8\nsamples = 5\nvalue = [0, 0, 0 ... 0, 0, 0]"] ;
858 -> 859 ;
860 [label="X[1] <= 889.5\ngini = 0.933\nsamples = 15\nvalue = [0, 0, 0 ... 0, 0, 0]"] ;
858 -> 860 ;
861 [label="gini = 0.8\nsamples = 5\nvalue = [0, 0, 0 ... 0, 0, 0]"] ;
860 -> 861 ;
862 [label="X[1] <= 1485.5\ngini = 0.9\nsamples = 10\nvalue = [0, 0, 0 ... 0, 0, 0]"] ;
860 -> 862 ;
863 [label="gini = 0.8\nsamples = 5\nvalue = [0, 0, 0 ... 0, 0, 0]"] ;
862 -> 863 ;
864 [label="gini = 0.8\nsamples = 5\nvalue = [0, 0, 0 ... 0, 0, 0]"] ;
862 -> 864 ;
865 [label="X[1] <= 89.5\ngini = 1.0\nsamples = 3638\nvalue = [0, 0, 0 ... 0, 0, 0]"] ;
857 -> 865 ;
866 [label="gini = 0.8\nsamples = 5\nvalue = [0, 0, 0 ... 0, 0, 0]"] ;
865 -> 866 ;
867 [label="X[1] <= 91.0\ngini = 1.0\nsamples = 3633\nvalue = [0, 0, 0 ... 0, 0, 0]"] ;
865 -> 867 ;
868 [label="gini = 0.8\nsamples = 5\nvalue = [0, 0, 0 ... 0, 0, 0]"] ;
867 -> 868 ;
869 [label="X[0] <= 3350.5\ngini = 1.0\nsamples = 3628\nvalue = [0, 0, 0 ... 0, 0, 0]"] ;
867 -> 869 ;
870 [label="X[1] <= 553.0\ngini = 0.964\nsamples = 28\nvalue = [0, 0, 0 ... 0, 0, 0]"] ;
869 -> 870 ;
871 [label="gini = 0.8\nsamples = 5\nvalue = [0, 0, 0 ... 0, 0, 0]"] ;
870 -> 871 ;
872 [label="X[1] <= 1111.0\ngini = 0.957\nsamples = 23\nvalue = [0, 0, 0 ... 0, 0, 0]"] ;
870 -> 872 ;
873 [label="gini = 0.8\nsamples = 5\nvalue = [0, 0, 0 ... 0, 0, 0]"] ;
872 -> 873 ;
874 [label="X[1] <= 1398.5\ngini = 0.944\nsamples = 18\nvalue = [0, 0, 0 ... 0, 0, 0]"] ;
872 -> 874 ;
875 [label="gini = 0.667\nsamples = 3\nvalue = [0, 0, 0 ... 0, 0, 0]"] ;
874 -> 875 ;
876 [label="X[1] <= 1576.0\ngini = 0.933\nsamples = 15\nvalue = [0, 0, 0 ... 0, 0, 0]"] ;
874 -> 876 ;
877 [label="gini = 0.8\nsamples = 5\nvalue = [0, 0, 0 ... 0, 0, 0]"] ;
876 -> 877 ;
878 [label="X[1] <= 1761.0\ngini = 0.9\nsamples = 10\nvalue = [0, 0, 0 ... 0, 0, 0]"] ;
876 -> 878 ;
879 [label="gini = 0.8\nsamples = 5\nvalue = [0, 0, 0 ... 0, 0, 0]"] ;
878 -> 879 ;
880 [label="gini = 0.8\nsamples = 5\nvalue = [0, 0, 0 ... 0, 0, 0]"] ;
878 -> 880 ;
881 [label="X[1] <= 95.0\ngini = 1.0\nsamples = 3600\nvalue = [0, 0, 0 ... 0, 0, 0]"] ;
869 -> 881 ;
882 [label="gini = 0.8\nsamples = 5\nvalue = [0, 0, 0 ... 0, 0, 0]"] ;
881 -> 882 ;
883 [label="X[0] <= 3360.0\ngini = 1.0\nsamples = 3595\nvalue = [0, 0, 0 ... 0, 0, 0]"] ;
881 -> 883 ;
884 [label="X[1] <= 366.0\ngini = 0.957\nsamples = 23\nvalue = [0, 0, 0 ... 0, 0, 0]"] ;
883 -> 884 ;
885 [label="gini = 0.8\nsamples = 5\nvalue = [0, 0, 0 ... 0, 0, 0]"] ;
884 -> 885 ;
886 [label="X[1] <= 530.0\ngini = 0.944\nsamples = 18\nvalue = [0, 0, 0 ... 0, 0, 0]"] ;
884 -> 886 ;
887 [label="gini = 0.75\nsamples = 4\nvalue = [0, 0, 0 ... 0, 0, 0]"] ;
886 -> 887 ;
888 [label="X[1] <= 751.0\ngini = 0.929\nsamples = 14\nvalue = [0, 0, 0 ... 0, 0, 0]"] ;
886 -> 888 ;
889 [label="gini = 0.8\nsamples = 5\nvalue = [0, 0, 0 ... 0, 0, 0]"] ;
888 -> 889 ;
890 [label="X[1] <= 1178.5\ngini = 0.889\nsamples = 9\nvalue = [0, 0, 0 ... 0, 0, 0]"] ;
888 -> 890 ;
891 [label="gini = 0.75\nsamples = 4\nvalue = [0, 0, 0 ... 0, 0, 0]"] ;
890 -> 891 ;
892 [label="gini = 0.8\nsamples = 5\nvalue = [0, 0, 0 ... 0, 0, 0]"] ;
890 -> 892 ;
893 [label="X[1] <= 98.5\ngini = 1.0\nsamples = 3572\nvalue = [0, 0, 0 ... 0, 0, 0]"] ;
883 -> 893 ;
894 [label="gini = 0.8\nsamples = 5\nvalue = [0, 0, 0 ... 0, 0, 0]"] ;
893 -> 894 ;
895 [label="X[0] <= 3377.5\ngini = 1.0\nsamples = 3567\nvalue = [0, 0, 0 ... 0, 0, 0]"] ;
893 -> 895 ;
896 [label="X[1] <= 793.5\ngini = 0.962\nsamples = 26\nvalue = [0, 0, 0 ... 0, 0, 0]"] ;
895 -> 896 ;
897 [label="gini = 0.0\nsamples = 1\nvalue = [0, 0, 0 ... 0, 0, 0]"] ;
896 -> 897 ;
898 [label="X[1] <= 918.0\ngini = 0.96\nsamples = 25\nvalue = [0, 0, 0 ... 0, 0, 0]"] ;
896 -> 898 ;
899 [label="gini = 0.8\nsamples = 5\nvalue = [0, 0, 0 ... 0, 0, 0]"] ;
898 -> 899 ;
900 [label="X[1] <= 1034.5\ngini = 0.95\nsamples = 20\nvalue = [0, 0, 0 ... 0, 0, 0]"] ;
898 -> 900 ;
901 [label="gini = 0.8\nsamples = 5\nvalue = [0, 0, 0 ... 0, 0, 0]"] ;
900 -> 901 ;
902 [label="X[1] <= 1254.0\ngini = 0.933\nsamples = 15\nvalue = [0, 0, 0 ... 0, 0, 0]"] ;
900 -> 902 ;
903 [label="gini = 0.8\nsamples = 5\nvalue = [0, 0, 0 ... 0, 0, 0]"] ;
902 -> 903 ;
904 [label="X[1] <= 1617.5\ngini = 0.9\nsamples = 10\nvalue = [0, 0, 0 ... 0, 0, 0]"] ;
902 -> 904 ;
905 [label="gini = 0.8\nsamples = 5\nvalue = [0, 0, 0 ... 0, 0, 0]"] ;
904 -> 905 ;
906 [label="gini = 0.8\nsamples = 5\nvalue = [0, 0, 0 ... 0, 0, 0]"] ;
904 -> 906 ;
907 [label="X[1] <= 101.5\ngini = 1.0\nsamples = 3541\nvalue = [0, 0, 0 ... 0, 0, 0]"] ;
895 -> 907 ;
908 [label="gini = 0.8\nsamples = 5\nvalue = [0, 0, 0 ... 0, 0, 0]"] ;
907 -> 908 ;
909 [label="X[1] <= 105.5\ngini = 1.0\nsamples = 3536\nvalue = [0, 0, 0 ... 0, 0, 0]"] ;
907 -> 909 ;
910 [label="gini = 0.8\nsamples = 5\nvalue = [0, 0, 0 ... 0, 0, 0]"] ;
909 -> 910 ;
911 [label="X[0] <= 3398.0\ngini = 1.0\nsamples = 3531\nvalue = [0, 0, 0 ... 0, 0, 0]"] ;
909 -> 911 ;
912 [label="X[1] <= 834.5\ngini = 0.967\nsamples = 30\nvalue = [0, 0, 0 ... 0, 0, 0]"] ;
911 -> 912 ;
913 [label="gini = 0.8\nsamples = 5\nvalue = [0, 0, 0 ... 0, 0, 0]"] ;
912 -> 913 ;
914 [label="X[1] <= 1165.5\ngini = 0.96\nsamples = 25\nvalue = [0, 0, 0 ... 0, 0, 0]"] ;
912 -> 914 ;
915 [label="gini = 0.8\nsamples = 5\nvalue = [0, 0, 0 ... 0, 0, 0]"] ;
914 -> 915 ;
916 [label="X[1] <= 1468.0\ngini = 0.95\nsamples = 20\nvalue = [0, 0, 0 ... 0, 0, 0]"] ;
914 -> 916 ;
917 [label="gini = 0.8\nsamples = 5\nvalue = [0, 0, 0 ... 0, 0, 0]"] ;
916 -> 917 ;
918 [label="X[1] <= 1534.5\ngini = 0.933\nsamples = 15\nvalue = [0, 0, 0 ... 0, 0, 0]"] ;
916 -> 918 ;
919 [label="gini = 0.8\nsamples = 5\nvalue = [0, 0, 0 ... 0, 0, 0]"] ;
918 -> 919 ;
920 [label="X[1] <= 1614.5\ngini = 0.9\nsamples = 10\nvalue = [0, 0, 0 ... 0, 0, 0]"] ;
918 -> 920 ;
921 [label="gini = 0.8\nsamples = 5\nvalue = [0, 0, 0 ... 0, 0, 0]"] ;
920 -> 921 ;
922 [label="gini = 0.8\nsamples = 5\nvalue = [0, 0, 0 ... 0, 0, 0]"] ;
920 -> 922 ;
923 [label="X[0] <= 3406.0\ngini = 1.0\nsamples = 3501\nvalue = [0, 0, 0 ... 0, 0, 0]"] ;
911 -> 923 ;
924 [label="X[1] <= 574.5\ngini = 0.96\nsamples = 25\nvalue = [0, 0, 0 ... 0, 0, 0]"] ;
923 -> 924 ;
925 [label="gini = 0.8\nsamples = 5\nvalue = [0, 0, 0 ... 0, 0, 0]"] ;
924 -> 925 ;
926 [label="X[1] <= 927.0\ngini = 0.95\nsamples = 20\nvalue = [0, 0, 0 ... 0, 0, 0]"] ;
924 -> 926 ;
927 [label="gini = 0.8\nsamples = 5\nvalue = [0, 0, 0 ... 0, 0, 0]"] ;
926 -> 927 ;
928 [label="X[1] <= 1146.0\ngini = 0.933\nsamples = 15\nvalue = [0, 0, 0 ... 0, 0, 0]"] ;
926 -> 928 ;
929 [label="gini = 0.8\nsamples = 5\nvalue = [0, 0, 0 ... 0, 0, 0]"] ;
928 -> 929 ;
930 [label="X[1] <= 1555.5\ngini = 0.9\nsamples = 10\nvalue = [0, 0, 0 ... 0, 0, 0]"] ;
928 -> 930 ;
931 [label="gini = 0.8\nsamples = 5\nvalue = [0, 0, 0 ... 0, 0, 0]"] ;
930 -> 931 ;
932 [label="gini = 0.8\nsamples = 5\nvalue = [0, 0, 0 ... 0, 0, 0]"] ;
930 -> 932 ;
933 [label="X[0] <= 3422.5\ngini = 1.0\nsamples = 3476\nvalue = [0, 0, 0 ... 0, 0, 0]"] ;
923 -> 933 ;
934 [label="X[1] <= 386.5\ngini = 0.962\nsamples = 26\nvalue = [0, 0, 0 ... 0, 0, 0]"] ;
933 -> 934 ;
935 [label="gini = 0.0\nsamples = 1\nvalue = [0, 0, 0 ... 0, 0, 0]"] ;
934 -> 935 ;
936 [label="X[1] <= 529.5\ngini = 0.96\nsamples = 25\nvalue = [0, 0, 0 ... 0, 0, 0]"] ;
934 -> 936 ;
937 [label="gini = 0.8\nsamples = 5\nvalue = [0, 0, 0 ... 0, 0, 0]"] ;
936 -> 937 ;
938 [label="X[1] <= 638.0\ngini = 0.95\nsamples = 20\nvalue = [0, 0, 0 ... 0, 0, 0]"] ;
936 -> 938 ;
939 [label="gini = 0.8\nsamples = 5\nvalue = [0, 0, 0 ... 0, 0, 0]"] ;
938 -> 939 ;
940 [label="X[1] <= 817.0\ngini = 0.933\nsamples = 15\nvalue = [0, 0, 0 ... 0, 0, 0]"] ;
938 -> 940 ;
941 [label="gini = 0.8\nsamples = 5\nvalue = [0, 0, 0 ... 0, 0, 0]"] ;
940 -> 941 ;
942 [label="X[1] <= 1264.5\ngini = 0.9\nsamples = 10\nvalue = [0, 0, 0 ... 0, 0, 0]"] ;
940 -> 942 ;
943 [label="gini = 0.8\nsamples = 5\nvalue = [0, 0, 0 ... 0, 0, 0]"] ;
942 -> 943 ;
944 [label="gini = 0.8\nsamples = 5\nvalue = [0, 0, 0 ... 0, 0, 0]"] ;
942 -> 944 ;
945 [label="X[1] <= 108.0\ngini = 1.0\nsamples = 3450\nvalue = [0, 0, 0 ... 0, 0, 0]"] ;
933 -> 945 ;
946 [label="gini = 0.8\nsamples = 5\nvalue = [0, 0, 0 ... 0, 0, 0]"] ;
945 -> 946 ;
947 [label="X[1] <= 112.5\ngini = 1.0\nsamples = 3445\nvalue = [0, 0, 0 ... 0, 0, 0]"] ;
945 -> 947 ;
948 [label="gini = 0.8\nsamples = 5\nvalue = [0, 0, 0 ... 0, 0, 0]"] ;
947 -> 948 ;
949 [label="X[0] <= 3441.5\ngini = 1.0\nsamples = 3440\nvalue = [0, 0, 0 ... 0, 0, 0]"] ;
947 -> 949 ;
950 [label="X[1] <= 467.0\ngini = 0.964\nsamples = 28\nvalue = [0, 0, 0 ... 0, 0, 0]"] ;
949 -> 950 ;
951 [label="gini = 0.75\nsamples = 4\nvalue = [0, 0, 0 ... 0, 0, 0]"] ;
950 -> 951 ;
952 [label="X[1] <= 734.0\ngini = 0.958\nsamples = 24\nvalue = [0, 0, 0 ... 0, 0, 0]"] ;
950 -> 952 ;
953 [label="gini = 0.8\nsamples = 5\nvalue = [0, 0, 0 ... 0, 0, 0]"] ;
952 -> 953 ;
954 [label="X[1] <= 909.5\ngini = 0.947\nsamples = 19\nvalue = [0, 0, 0 ... 0, 0, 0]"] ;
952 -> 954 ;
955 [label="gini = 0.8\nsamples = 5\nvalue = [0, 0, 0 ... 0, 0, 0]"] ;
954 -> 955 ;
956 [label="X[1] <= 1147.0\ngini = 0.929\nsamples = 14\nvalue = [0, 0, 0 ... 0, 0, 0]"] ;
954 -> 956 ;
957 [label="gini = 0.75\nsamples = 4\nvalue = [0, 0, 0 ... 0, 0, 0]"] ;
956 -> 957 ;
958 [label="X[1] <= 1469.5\ngini = 0.9\nsamples = 10\nvalue = [0, 0, 0 ... 0, 0, 0]"] ;
956 -> 958 ;
959 [label="gini = 0.8\nsamples = 5\nvalue = [0, 0, 0 ... 0, 0, 0]"] ;
958 -> 959 ;
960 [label="gini = 0.8\nsamples = 5\nvalue = [0, 0, 0 ... 0, 0, 0]"] ;
958 -> 960 ;
961 [label="X[0] <= 3454.0\ngini = 1.0\nsamples = 3412\nvalue = [0, 0, 0 ... 0, 0, 0]"] ;
949 -> 961 ;
962 [label="X[1] <= 206.0\ngini = 0.967\nsamples = 30\nvalue = [0, 0, 0 ... 0, 0, 0]"] ;
961 -> 962 ;
963 [label="gini = 0.8\nsamples = 5\nvalue = [0, 0, 0 ... 0, 0, 0]"] ;
962 -> 963 ;
964 [label="X[1] <= 476.0\ngini = 0.96\nsamples = 25\nvalue = [0, 0, 0 ... 0, 0, 0]"] ;
962 -> 964 ;
965 [label="gini = 0.8\nsamples = 5\nvalue = [0, 0, 0 ... 0, 0, 0]"] ;
964 -> 965 ;
966 [label="X[1] <= 795.5\ngini = 0.95\nsamples = 20\nvalue = [0, 0, 0 ... 0, 0, 0]"] ;
964 -> 966 ;
967 [label="gini = 0.8\nsamples = 5\nvalue = [0, 0, 0 ... 0, 0, 0]"] ;
966 -> 967 ;
968 [label="X[1] <= 1045.0\ngini = 0.933\nsamples = 15\nvalue = [0, 0, 0 ... 0, 0, 0]"] ;
966 -> 968 ;
969 [label="gini = 0.8\nsamples = 5\nvalue = [0, 0, 0 ... 0, 0, 0]"] ;
968 -> 969 ;
970 [label="X[1] <= 1295.5\ngini = 0.9\nsamples = 10\nvalue = [0, 0, 0 ... 0, 0, 0]"] ;
968 -> 970 ;
971 [label="gini = 0.8\nsamples = 5\nvalue = [0, 0, 0 ... 0, 0, 0]"] ;
970 -> 971 ;
972 [label="gini = 0.8\nsamples = 5\nvalue = [0, 0, 0 ... 0, 0, 0]"] ;
970 -> 972 ;
973 [label="X[0] <= 3465.5\ngini = 1.0\nsamples = 3382\nvalue = [0, 0, 0 ... 0, 0, 0]"] ;
961 -> 973 ;
974 [label="X[1] <= 275.5\ngini = 0.96\nsamples = 25\nvalue = [0, 0, 0 ... 0, 0, 0]"] ;
973 -> 974 ;
975 [label="gini = 0.8\nsamples = 5\nvalue = [0, 0, 0 ... 0, 0, 0]"] ;
974 -> 975 ;
976 [label="X[1] <= 699.0\ngini = 0.95\nsamples = 20\nvalue = [0, 0, 0 ... 0, 0, 0]"] ;
974 -> 976 ;
977 [label="gini = 0.5\nsamples = 2\nvalue = [0, 0, 0 ... 0, 0, 0]"] ;
976 -> 977 ;
978 [label="X[1] <= 1093.0\ngini = 0.944\nsamples = 18\nvalue = [0, 0, 0 ... 0, 0, 0]"] ;
976 -> 978 ;
979 [label="gini = 0.8\nsamples = 5\nvalue = [0, 0, 0 ... 0, 0, 0]"] ;
978 -> 979 ;
980 [label="X[1] <= 1349.5\ngini = 0.923\nsamples = 13\nvalue = [0, 0, 0 ... 0, 0, 0]"] ;
978 -> 980 ;
981 [label="gini = 0.667\nsamples = 3\nvalue = [0, 0, 0 ... 0, 0, 0]"] ;
980 -> 981 ;
982 [label="X[1] <= 1567.5\ngini = 0.9\nsamples = 10\nvalue = [0, 0, 0 ... 0, 0, 0]"] ;
980 -> 982 ;
983 [label="gini = 0.8\nsamples = 5\nvalue = [0, 0, 0 ... 0, 0, 0]"] ;
982 -> 983 ;
984 [label="gini = 0.8\nsamples = 5\nvalue = [0, 0, 0 ... 0, 0, 0]"] ;
982 -> 984 ;
985 [label="X[0] <= 3475.0\ngini = 1.0\nsamples = 3357\nvalue = [0, 0, 0 ... 0, 0, 0]"] ;
973 -> 985 ;
986 [label="X[1] <= 758.5\ngini = 0.967\nsamples = 30\nvalue = [0, 0, 0 ... 0, 0, 0]"] ;
985 -> 986 ;
987 [label="gini = 0.8\nsamples = 5\nvalue = [0, 0, 0 ... 0, 0, 0]"] ;
986 -> 987 ;
988 [label="X[1] <= 1416.0\ngini = 0.96\nsamples = 25\nvalue = [0, 0, 0 ... 0, 0, 0]"] ;
986 -> 988 ;
989 [label="gini = 0.8\nsamples = 5\nvalue = [0, 0, 0 ... 0, 0, 0]"] ;
988 -> 989 ;
990 [label="X[1] <= 1453.0\ngini = 0.95\nsamples = 20\nvalue = [0, 0, 0 ... 0, 0, 0]"] ;
988 -> 990 ;
991 [label="gini = 0.8\nsamples = 5\nvalue = [0, 0, 0 ... 0, 0, 0]"] ;
990 -> 991 ;
992 [label="X[1] <= 1493.0\ngini = 0.933\nsamples = 15\nvalue = [0, 0, 0 ... 0, 0, 0]"] ;
990 -> 992 ;
993 [label="gini = 0.8\nsamples = 5\nvalue = [0, 0, 0 ... 0, 0, 0]"] ;
992 -> 993 ;
994 [label="X[1] <= 1686.0\ngini = 0.9\nsamples = 10\nvalue = [0, 0, 0 ... 0, 0, 0]"] ;
992 -> 994 ;
995 [label="gini = 0.8\nsamples = 5\nvalue = [0, 0, 0 ... 0, 0, 0]"] ;
994 -> 995 ;
996 [label="gini = 0.8\nsamples = 5\nvalue = [0, 0, 0 ... 0, 0, 0]"] ;
994 -> 996 ;
997 [label="X[0] <= 3490.5\ngini = 1.0\nsamples = 3327\nvalue = [0, 0, 0 ... 0, 0, 0]"] ;
985 -> 997 ;
998 [label="X[1] <= 494.5\ngini = 0.966\nsamples = 29\nvalue = [0, 0, 0 ... 0, 0, 0]"] ;
997 -> 998 ;
999 [label="gini = 0.8\nsamples = 5\nvalue = [0, 0, 0 ... 0, 0, 0]"] ;
998 -> 999 ;
1000 [label="X[1] <= 804.0\ngini = 0.958\nsamples = 24\nvalue = [0, 0, 0 ... 0, 0, 0]"] ;
998 -> 1000 ;
1001 [label="gini = 0.8\nsamples = 5\nvalue = [0, 0, 0 ... 0, 0, 0]"] ;
1000 -> 1001 ;
1002 [label="X[1] <= 1036.0\ngini = 0.947\nsamples = 19\nvalue = [0, 0, 0 ... 0, 0, 0]"] ;
1000 -> 1002 ;
1003 [label="gini = 0.8\nsamples = 5\nvalue = [0, 0, 0 ... 0, 0, 0]"] ;
1002 -> 1003 ;
1004 [label="X[1] <= 1104.0\ngini = 0.929\nsamples = 14\nvalue = [0, 0, 0 ... 0, 0, 0]"] ;
1002 -> 1004 ;
1005 [label="gini = 0.75\nsamples = 4\nvalue = [0, 0, 0 ... 0, 0, 0]"] ;
1004 -> 1005 ;
1006 [label="X[1] <= 1412.0\ngini = 0.9\nsamples = 10\nvalue = [0, 0, 0 ... 0, 0, 0]"] ;
1004 -> 1006 ;
1007 [label="gini = 0.8\nsamples = 5\nvalue = [0, 0, 0 ... 0, 0, 0]"] ;
1006 -> 1007 ;
1008 [label="gini = 0.8\nsamples = 5\nvalue = [0, 0, 0 ... 0, 0, 0]"] ;
1006 -> 1008 ;
1009 [label="X[0] <= 3509.0\ngini = 1.0\nsamples = 3298\nvalue = [0, 0, 0 ... 0, 0, 0]"] ;
997 -> 1009 ;
1010 [label="X[1] <= 567.0\ngini = 0.96\nsamples = 25\nvalue = [0, 0, 0 ... 0, 0, 0]"] ;
1009 -> 1010 ;
1011 [label="gini = 0.8\nsamples = 5\nvalue = [0, 0, 0 ... 0, 0, 0]"] ;
1010 -> 1011 ;
1012 [label="X[1] <= 855.5\ngini = 0.95\nsamples = 20\nvalue = [0, 0, 0 ... 0, 0, 0]"] ;
1010 -> 1012 ;
1013 [label="gini = 0.8\nsamples = 5\nvalue = [0, 0, 0 ... 0, 0, 0]"] ;
1012 -> 1013 ;
1014 [label="X[1] <= 1084.0\ngini = 0.933\nsamples = 15\nvalue = [0, 0, 0 ... 0, 0, 0]"] ;
1012 -> 1014 ;
1015 [label="gini = 0.75\nsamples = 4\nvalue = [0, 0, 0 ... 0, 0, 0]"] ;
1014 -> 1015 ;
1016 [label="X[1] <= 1299.0\ngini = 0.909\nsamples = 11\nvalue = [0, 0, 0 ... 0, 0, 0]"] ;
1014 -> 1016 ;
1017 [label="gini = 0.0\nsamples = 1\nvalue = [0, 0, 0 ... 0, 0, 0]"] ;
1016 -> 1017 ;
1018 [label="X[1] <= 1531.5\ngini = 0.9\nsamples = 10\nvalue = [0, 0, 0 ... 0, 0, 0]"] ;
1016 -> 1018 ;
1019 [label="gini = 0.8\nsamples = 5\nvalue = [0, 0, 0 ... 0, 0, 0]"] ;
1018 -> 1019 ;
1020 [label="gini = 0.8\nsamples = 5\nvalue = [0, 0, 0 ... 0, 0, 0]"] ;
1018 -> 1020 ;
1021 [label="X[0] <= 3525.5\ngini = 1.0\nsamples = 3273\nvalue = [0, 0, 0 ... 0, 0, 0]"] ;
1009 -> 1021 ;
1022 [label="X[1] <= 648.5\ngini = 0.95\nsamples = 20\nvalue = [0, 0, 0 ... 0, 0, 0]"] ;
1021 -> 1022 ;
1023 [label="gini = 0.8\nsamples = 5\nvalue = [0, 0, 0 ... 0, 0, 0]"] ;
1022 -> 1023 ;
1024 [label="X[1] <= 1204.5\ngini = 0.933\nsamples = 15\nvalue = [0, 0, 0 ... 0, 0, 0]"] ;
1022 -> 1024 ;
1025 [label="gini = 0.8\nsamples = 5\nvalue = [0, 0, 0 ... 0, 0, 0]"] ;
1024 -> 1025 ;
1026 [label="X[1] <= 1625.0\ngini = 0.9\nsamples = 10\nvalue = [0, 0, 0 ... 0, 0, 0]"] ;
1024 -> 1026 ;
1027 [label="gini = 0.8\nsamples = 5\nvalue = [0, 0, 0 ... 0, 0, 0]"] ;
1026 -> 1027 ;
1028 [label="gini = 0.8\nsamples = 5\nvalue = [0, 0, 0 ... 0, 0, 0]"] ;
1026 -> 1028 ;
1029 [label="X[0] <= 3535.5\ngini = 1.0\nsamples = 3253\nvalue = [0, 0, 0 ... 0, 0, 0]"] ;
1021 -> 1029 ;
1030 [label="X[1] <= 316.0\ngini = 0.967\nsamples = 30\nvalue = [0, 0, 0 ... 0, 0, 0]"] ;
1029 -> 1030 ;
1031 [label="gini = 0.8\nsamples = 5\nvalue = [0, 0, 0 ... 0, 0, 0]"] ;
1030 -> 1031 ;
1032 [label="X[1] <= 659.0\ngini = 0.96\nsamples = 25\nvalue = [0, 0, 0 ... 0, 0, 0]"] ;
1030 -> 1032 ;
1033 [label="gini = 0.8\nsamples = 5\nvalue = [0, 0, 0 ... 0, 0, 0]"] ;
1032 -> 1033 ;
1034 [label="X[1] <= 1063.0\ngini = 0.95\nsamples = 20\nvalue = [0, 0, 0 ... 0, 0, 0]"] ;
1032 -> 1034 ;
1035 [label="gini = 0.8\nsamples = 5\nvalue = [0, 0, 0 ... 0, 0, 0]"] ;
1034 -> 1035 ;
1036 [label="X[1] <= 1187.0\ngini = 0.933\nsamples = 15\nvalue = [0, 0, 0 ... 0, 0, 0]"] ;
1034 -> 1036 ;
1037 [label="gini = 0.8\nsamples = 5\nvalue = [0, 0, 0 ... 0, 0, 0]"] ;
1036 -> 1037 ;
1038 [label="X[1] <= 1347.5\ngini = 0.9\nsamples = 10\nvalue = [0, 0, 0 ... 0, 0, 0]"] ;
1036 -> 1038 ;
1039 [label="gini = 0.8\nsamples = 5\nvalue = [0, 0, 0 ... 0, 0, 0]"] ;
1038 -> 1039 ;
1040 [label="gini = 0.8\nsamples = 5\nvalue = [0, 0, 0 ... 0, 0, 0]"] ;
1038 -> 1040 ;
1041 [label="X[0] <= 3540.0\ngini = 1.0\nsamples = 3223\nvalue = [0, 0, 0 ... 0, 0, 0]"] ;
1029 -> 1041 ;
1042 [label="X[1] <= 492.5\ngini = 0.96\nsamples = 25\nvalue = [0, 0, 0 ... 0, 0, 0]"] ;
1041 -> 1042 ;
1043 [label="gini = 0.8\nsamples = 5\nvalue = [0, 0, 0 ... 0, 0, 0]"] ;
1042 -> 1043 ;
1044 [label="X[1] <= 881.0\ngini = 0.95\nsamples = 20\nvalue = [0, 0, 0 ... 0, 0, 0]"] ;
1042 -> 1044 ;
1045 [label="gini = 0.8\nsamples = 5\nvalue = [0, 0, 0 ... 0, 0, 0]"] ;
1044 -> 1045 ;
1046 [label="X[1] <= 1517.5\ngini = 0.933\nsamples = 15\nvalue = [0, 0, 0 ... 0, 0, 0]"] ;
1044 -> 1046 ;
1047 [label="gini = 0.8\nsamples = 5\nvalue = [0, 0, 0 ... 0, 0, 0]"] ;
1046 -> 1047 ;
1048 [label="X[1] <= 1800.0\ngini = 0.9\nsamples = 10\nvalue = [0, 0, 0 ... 0, 0, 0]"] ;
1046 -> 1048 ;
1049 [label="gini = 0.8\nsamples = 5\nvalue = [0, 0, 0 ... 0, 0, 0]"] ;
1048 -> 1049 ;
1050 [label="gini = 0.8\nsamples = 5\nvalue = [0, 0, 0 ... 0, 0, 0]"] ;
1048 -> 1050 ;
1051 [label="X[0] <= 3545.0\ngini = 1.0\nsamples = 3198\nvalue = [0, 0, 0 ... 0, 0, 0]"] ;
1041 -> 1051 ;
1052 [label="X[1] <= 737.0\ngini = 0.96\nsamples = 25\nvalue = [0, 0, 0 ... 0, 0, 0]"] ;
1051 -> 1052 ;
1053 [label="gini = 0.8\nsamples = 5\nvalue = [0, 0, 0 ... 0, 0, 0]"] ;
1052 -> 1053 ;
1054 [label="X[1] <= 1478.0\ngini = 0.95\nsamples = 20\nvalue = [0, 0, 0 ... 0, 0, 0]"] ;
1052 -> 1054 ;
1055 [label="gini = 0.8\nsamples = 5\nvalue = [0, 0, 0 ... 0, 0, 0]"] ;
1054 -> 1055 ;
1056 [label="X[1] <= 1720.5\ngini = 0.933\nsamples = 15\nvalue = [0, 0, 0 ... 0, 0, 0]"] ;
1054 -> 1056 ;
1057 [label="gini = 0.8\nsamples = 5\nvalue = [0, 0, 0 ... 0, 0, 0]"] ;
1056 -> 1057 ;
1058 [label="X[1] <= 1835.5\ngini = 0.9\nsamples = 10\nvalue = [0, 0, 0 ... 0, 0, 0]"] ;
1056 -> 1058 ;
1059 [label="gini = 0.8\nsamples = 5\nvalue = [0, 0, 0 ... 0, 0, 0]"] ;
1058 -> 1059 ;
1060 [label="gini = 0.8\nsamples = 5\nvalue = [0, 0, 0 ... 0, 0, 0]"] ;
1058 -> 1060 ;
1061 [label="X[1] <= 116.5\ngini = 1.0\nsamples = 3173\nvalue = [0, 0, 0 ... 0, 0, 0]"] ;
1051 -> 1061 ;
1062 [label="gini = 0.75\nsamples = 4\nvalue = [0, 0, 0 ... 0, 0, 0]"] ;
1061 -> 1062 ;
1063 [label="X[0] <= 3583.0\ngini = 1.0\nsamples = 3169\nvalue = [0, 0, 0 ... 0, 0, 0]"] ;
1061 -> 1063 ;
1064 [label="X[1] <= 359.5\ngini = 0.967\nsamples = 30\nvalue = [0, 0, 0 ... 0, 0, 0]"] ;
1063 -> 1064 ;
1065 [label="gini = 0.8\nsamples = 5\nvalue = [0, 0, 0 ... 0, 0, 0]"] ;
1064 -> 1065 ;
1066 [label="X[1] <= 636.5\ngini = 0.96\nsamples = 25\nvalue = [0, 0, 0 ... 0, 0, 0]"] ;
1064 -> 1066 ;
1067 [label="gini = 0.8\nsamples = 5\nvalue = [0, 0, 0 ... 0, 0, 0]"] ;
1066 -> 1067 ;
1068 [label="X[1] <= 768.0\ngini = 0.95\nsamples = 20\nvalue = [0, 0, 0 ... 0, 0, 0]"] ;
1066 -> 1068 ;
1069 [label="gini = 0.8\nsamples = 5\nvalue = [0, 0, 0 ... 0, 0, 0]"] ;
1068 -> 1069 ;
1070 [label="X[1] <= 961.0\ngini = 0.933\nsamples = 15\nvalue = [0, 0, 0 ... 0, 0, 0]"] ;
1068 -> 1070 ;
1071 [label="gini = 0.8\nsamples = 5\nvalue = [0, 0, 0 ... 0, 0, 0]"] ;
1070 -> 1071 ;
1072 [label="X[1] <= 1314.5\ngini = 0.9\nsamples = 10\nvalue = [0, 0, 0 ... 0, 0, 0]"] ;
1070 -> 1072 ;
